{"learner":{"attributes":{"scikit_learn":"{\"_estimator_type\": \"classifier\"}"},"feature_names":[],"feature_types":[],"gradient_booster":{"model":{"gbtree_model_param":{"num_parallel_tree":"1","num_trees":"1000"},"iteration_indptr":[0,1,2,3,4,5,6,7,8,9,10,11,12,13,14,15,16,17,18,19,20,21,22,23,24,25,26,27,28,29,30,31,32,33,34,35,36,37,38,39,40,41,42,43,44,45,46,47,48,49,50,51,52,53,54,55,56,57,58,59,60,61,62,63,64,65,66,67,68,69,70,71,72,73,74,75,76,77,78,79,80,81,82,83,84,85,86,87,88,89,90,91,92,93,94,95,96,97,98,99,100,101,102,103,104,105,106,107,108,109,110,111,112,113,114,115,116,117,118,119,120,121,122,123,124,125,126,127,128,129,130,131,132,133,134,135,136,137,138,139,140,141,142,143,144,145,146,147,148,149,150,151,152,153,154,155,156,157,158,159,160,161,162,163,164,165,166,167,168,169,170,171,172,173,174,175,176,177,178,179,180,181,182,183,184,185,186,187,188,189,190,191,192,193,194,195,196,197,198,199,200,201,202,203,204,205,206,207,208,209,210,211,212,213,214,215,216,217,218,219,220,221,222,223,224,225,226,227,228,229,230,231,232,233,234,235,236,237,238,239,240,241,242,243,244,245,246,247,248,249,250,251,252,253,254,255,256,257,258,259,260,261,262,263,264,265,266,267,268,269,270,271,272,273,274,275,276,277,278,279,280,281,282,283,284,285,286,287,288,289,290,291,292,293,294,295,296,297,298,299,300,301,302,303,304,305,306,307,308,309,310,311,312,313,314,315,316,317,318,319,320,321,322,323,324,325,326,327,328,329,330,331,332,333,334,335,336,337,338,339,340,341,342,343,344,345,346,347,348,349,350,351,352,353,354,355,356,357,358,359,360,361,362,363,364,365,366,367,368,369,370,371,372,373,374,375,376,377,378,379,380,381,382,383,384,385,386,387,388,389,390,391,392,393,394,395,396,397,398,399,400,401,402,403,404,405,406,407,408,409,410,411,412,413,414,415,416,417,418,419,420,421,422,423,424,425,426,427,428,429,430,431,432,433,434,435,436,437,438,439,440,441,442,443,444,445,446,447,448,449,450,451,452,453,454,455,456,457,458,459,460,461,462,463,464,465,466,467,468,469,470,471,472,473,474,475,476,477,478,479,480,481,482,483,484,485,486,487,488,489,490,491,492,493,494,495,496,497,498,499,500,501,502,503,504,505,506,507,508,509,510,511,512,513,514,515,516,517,518,519,520,521,522,523,524,525,526,527,528,529,530,531,532,533,534,535,536,537,538,539,540,541,542,543,544,545,546,547,548,549,550,551,552,553,554,555,556,557,558,559,560,561,562,563,564,565,566,567,568,569,570,571,572,573,574,575,576,577,578,579,580,581,582,583,584,585,586,587,588,589,590,591,592,593,594,595,596,597,598,599,600,601,602,603,604,605,606,607,608,609,610,611,612,613,614,615,616,617,618,619,620,621,622,623,624,625,626,627,628,629,630,631,632,633,634,635,636,637,638,639,640,641,642,643,644,645,646,647,648,649,650,651,652,653,654,655,656,657,658,659,660,661,662,663,664,665,666,667,668,669,670,671,672,673,674,675,676,677,678,679,680,681,682,683,684,685,686,687,688,689,690,691,692,693,694,695,696,697,698,699,700,701,702,703,704,705,706,707,708,709,710,711,712,713,714,715,716,717,718,719,720,721,722,723,724,725,726,727,728,729,730,731,732,733,734,735,736,737,738,739,740,741,742,743,744,745,746,747,748,749,750,751,752,753,754,755,756,757,758,759,760,761,762,763,764,765,766,767,768,769,770,771,772,773,774,775,776,777,778,779,780,781,782,783,784,785,786,787,788,789,790,791,792,793,794,795,796,797,798,799,800,801,802,803,804,805,806,807,808,809,810,811,812,813,814,815,816,817,818,819,820,821,822,823,824,825,826,827,828,829,830,831,832,833,834,835,836,837,838,839,840,841,842,843,844,845,846,847,848,849,850,851,852,853,854,855,856,857,858,859,860,861,862,863,864,865,866,867,868,869,870,871,872,873,874,875,876,877,878,879,880,881,882,883,884,885,886,887,888,889,890,891,892,893,894,895,896,897,898,899,900,901,902,903,904,905,906,907,908,909,910,911,912,913,914,915,916,917,918,919,920,921,922,923,924,925,926,927,928,929,930,931,932,933,934,935,936,937,938,939,940,941,942,943,944,945,946,947,948,949,950,951,952,953,954,955,956,957,958,959,960,961,962,963,964,965,966,967,968,969,970,971,972,973,974,975,976,977,978,979,980,981,982,983,984,985,986,987,988,989,990,991,992,993,994,995,996,997,998,999,1000],"tree_info":[0,0,0,0,0,0,0,0,0,0,0,0,0,0,0,0,0,0,0,0,0,0,0,0,0,0,0,0,0,0,0,0,0,0,0,0,0,0,0,0,0,0,0,0,0,0,0,0,0,0,0,0,0,0,0,0,0,0,0,0,0,0,0,0,0,0,0,0,0,0,0,0,0,0,0,0,0,0,0,0,0,0,0,0,0,0,0,0,0,0,0,0,0,0,0,0,0,0,0,0,0,0,0,0,0,0,0,0,0,0,0,0,0,0,0,0,0,0,0,0,0,0,0,0,0,0,0,0,0,0,0,0,0,0,0,0,0,0,0,0,0,0,0,0,0,0,0,0,0,0,0,0,0,0,0,0,0,0,0,0,0,0,0,0,0,0,0,0,0,0,0,0,0,0,0,0,0,0,0,0,0,0,0,0,0,0,0,0,0,0,0,0,0,0,0,0,0,0,0,0,0,0,0,0,0,0,0,0,0,0,0,0,0,0,0,0,0,0,0,0,0,0,0,0,0,0,0,0,0,0,0,0,0,0,0,0,0,0,0,0,0,0,0,0,0,0,0,0,0,0,0,0,0,0,0,0,0,0,0,0,0,0,0,0,0,0,0,0,0,0,0,0,0,0,0,0,0,0,0,0,0,0,0,0,0,0,0,0,0,0,0,0,0,0,0,0,0,0,0,0,0,0,0,0,0,0,0,0,0,0,0,0,0,0,0,0,0,0,0,0,0,0,0,0,0,0,0,0,0,0,0,0,0,0,0,0,0,0,0,0,0,0,0,0,0,0,0,0,0,0,0,0,0,0,0,0,0,0,0,0,0,0,0,0,0,0,0,0,0,0,0,0,0,0,0,0,0,0,0,0,0,0,0,0,0,0,0,0,0,0,0,0,0,0,0,0,0,0,0,0,0,0,0,0,0,0,0,0,0,0,0,0,0,0,0,0,0,0,0,0,0,0,0,0,0,0,0,0,0,0,0,0,0,0,0,0,0,0,0,0,0,0,0,0,0,0,0,0,0,0,0,0,0,0,0,0,0,0,0,0,0,0,0,0,0,0,0,0,0,0,0,0,0,0,0,0,0,0,0,0,0,0,0,0,0,0,0,0,0,0,0,0,0,0,0,0,0,0,0,0,0,0,0,0,0,0,0,0,0,0,0,0,0,0,0,0,0,0,0,0,0,0,0,0,0,0,0,0,0,0,0,0,0,0,0,0,0,0,0,0,0,0,0,0,0,0,0,0,0,0,0,0,0,0,0,0,0,0,0,0,0,0,0,0,0,0,0,0,0,0,0,0,0,0,0,0,0,0,0,0,0,0,0,0,0,0,0,0,0,0,0,0,0,0,0,0,0,0,0,0,0,0,0,0,0,0,0,0,0,0,0,0,0,0,0,0,0,0,0,0,0,0,0,0,0,0,0,0,0,0,0,0,0,0,0,0,0,0,0,0,0,0,0,0,0,0,0,0,0,0,0,0,0,0,0,0,0,0,0,0,0,0,0,0,0,0,0,0,0,0,0,0,0,0,0,0,0,0,0,0,0,0,0,0,0,0,0,0,0,0,0,0,0,0,0,0,0,0,0,0,0,0,0,0,0,0,0,0,0,0,0,0,0,0,0,0,0,0,0,0,0,0,0,0,0,0,0,0,0,0,0,0,0,0,0,0,0,0,0,0,0,0,0,0,0,0,0,0,0,0,0,0,0,0,0,0,0,0,0,0,0,0,0,0,0,0,0,0,0,0,0,0,0,0,0,0,0,0,0,0,0,0,0,0,0,0,0,0,0,0,0,0,0,0,0,0,0,0,0,0,0,0,0,0,0,0,0,0,0,0,0,0,0,0,0,0,0,0,0,0,0,0,0,0,0,0,0,0,0,0,0,0,0,0,0,0,0,0,0,0,0,0,0,0,0,0,0,0,0,0,0,0,0,0,0,0,0,0,0,0,0,0,0,0,0,0,0,0,0,0,0,0,0,0,0,0,0,0,0,0,0,0,0,0,0,0,0,0,0,0,0,0,0,0,0,0,0,0,0,0,0,0,0,0,0,0,0,0,0,0,0,0,0,0,0,0,0,0,0,0,0,0,0,0,0,0,0,0,0,0,0,0,0,0,0,0,0,0,0,0,0,0,0,0,0,0,0,0,0,0,0,0,0,0,0,0,0,0,0,0,0,0,0,0,0,0,0,0,0,0,0,0,0,0,0,0,0,0,0,0,0,0,0,0,0,0,0,0,0,0,0,0,0,0,0,0,0,0,0,0],"trees":[{"base_weights":[1.0471204E-2,-1.06689245E-1,4.045584E-1,7.577497E-2,-6.11465E-1,-6.666667E-2,4.925816E-1,6.909091E-1,-1.3071896E-2,-9.3457943E-1,7.692308E-2,2.4215247E-1,9.491525E-1,1.7142858E-1,1.4545455E0,-6.8235296E-1,7.017544E-2,-3.4666666E-1,-1.2167832E0,-5.3061223E-1,5.762712E-1,5.174825E-1,-2.3809524E-1,1.5409836E0,2.9508197E-1,6.3414633E-1,-4.2424244E-1,8.0000006E-2,-0E0,-8.2051283E-1,2.727273E-2,3.611111E-1,-1.4E-1,5E-1,-6.909091E-1,-1.375E0,1.0526316E-1,-1.0857143E0,6.666667E-1,-6.896552E-2,1.0588236E0,6.1764705E-1,-4.5454547E-2,-4.4444445E-1,7.5E-1,-0E0,8.245614E-2,-7.5E-1,6.122449E-1,6.428572E-2,-2.9411767E-2,-5E-2,3.846154E-2,-5.6E-2,-1.25E-2,9.170306E-3,4.920635E-2,-2.1568628E-2,8E-3,-2.3076924E-2,6.0000002E-2,1.1111111E-2,-5.121951E-2,-3.0769233E-2,-7.54717E-2,4.5454547E-2,-3.3333335E-2,2.0000001E-2,-7.2413795E-2,6.666667E-2,-2.0000001E-2,-3.3333335E-2,2.2222223E-2,-2.5E-2,6.666667E-2,8.196722E-3,4.6835445E-2,1.5384616E-2,-4.0000003E-2,6.0000002E-2,-0E0,1.1111111E-2,-6.363636E-2,-2.2222223E-2,5.4285716E-2],"categories":[],"categories_nodes":[],"categories_segments":[],"categories_sizes":[],"default_left":[0,0,0,0,0,0,0,0,0,0,0,0,0,0,0,0,0,0,0,0,0,0,0,0,0,0,0,0,0,0,0,0,0,0,0,0,0,0,0,0,0,0,0,0,0,0,0,0,0,0,0,0,0,0,0,0,0,0,0,0,0,0,0,0,0,0,0,0,0,0,0,0,0,0,0,0,0,0,0,0,0,0,0,0,0],"id":0,"left_children":[1,3,5,7,9,-1,11,13,15,17,19,21,23,25,27,29,31,33,35,37,39,41,43,45,47,49,51,-1,-1,53,-1,55,57,59,61,63,65,67,69,71,73,75,-1,77,79,-1,-1,81,83,-1,-1,-1,-1,-1,-1,-1,-1,-1,-1,-1,-1,-1,-1,-1,-1,-1,-1,-1,-1,-1,-1,-1,-1,-1,-1,-1,-1,-1,-1,-1,-1,-1,-1,-1,-1],"loss_changes":[1.7680649E1,2.7239893E1,1.4080314E1,1.1909665E1,1.7532501E1,0E0,9.4031925E0,1.0659741E1,1.0703543E1,8.45443E0,8.193439E0,7.4948444E0,1.0964714E1,5.092514E0,2.3272724E0,4.05227E0,1.0506784E1,5.8103037E0,7.6225624E0,8.865306E0,4.6655893E0,5.6698895E0,4.615079E0,2.5412712E0,5.513968E0,8.920066E0,6.438228E0,0E0,0E0,3.051795E0,0E0,7.790844E0,8.810196E0,4.592308E0,4.414684E0,2.3388977E0,3.553429E0,5.292611E0,3.7333336E0,2.5210729E0,4.3039217E0,4.76836E0,0E0,5.0598297E0,1.3499999E0,0E0,0E0,2.3156567E0,6.6113377E0,0E0,0E0,0E0,0E0,0E0,0E0,0E0,0E0,0E0,0E0,0E0,0E0,0E0,0E0,0E0,0E0,0E0,0E0,0E0,0E0,0E0,0E0,0E0,0E0,0E0,0E0,0E0,0E0,0E0,0E0,0E0,0E0,0E0,0E0,0E0,0E0],"parents":[2147483647,0,0,1,1,2,2,3,3,4,4,6,6,7,7,8,8,9,9,10,10,11,11,12,12,13,13,14,14,15,15,16,16,17,17,18,18,19,19,20,20,21,21,22,22,23,23,24,24,25,25,26,26,29,29,31,31,32,32,33,33,34,34,35,35,36,36,37,37,38,38,39,39,40,40,41,41,43,43,44,44,47,47,48,48],"right_children":[2,4,6,8,10,-1,12,14,16,18,20,22,24,26,28,30,32,34,36,38,40,42,44,46,48,50,52,-1,-1,54,-1,56,58,60,62,64,66,68,70,72,74,76,-1,78,80,-1,-1,82,84,-1,-1,-1,-1,-1,-1,-1,-1,-1,-1,-1,-1,-1,-1,-1,-1,-1,-1,-1,-1,-1,-1,-1,-1,-1,-1,-1,-1,-1,-1,-1,-1,-1,-1,-1,-1],"split_conditions":[2.7789513E1,3.096662E1,-7.290169E1,-5.375435E1,7.2908163E0,-6.666667E-2,5.9214104E1,3.056788E1,1.708754E1,3.181003E1,2.762579E1,-5.562239E1,3.350285E1,1.5131892E1,4.430292E1,2.7253317E1,-5.2481197E1,1.3629832E1,6.7483795E1,4.0220623E0,-4.818095E1,1.8593796E1,2.3267275E1,-6.33687E1,-4.1686554E1,7.207643E0,1.6721588E1,8.0000006E-2,-0E0,3.064612E1,2.727273E-2,6.203948E0,3.6914093E1,1.7163929E1,-5.2363255E1,1.7586763E1,1.9118877E1,1.0617785E1,-3.367063E1,4.685253E0,3.24708E1,-5.5764824E1,-4.5454547E-2,2.8351385E1,2.1656021E1,-0E0,8.245614E-2,2.9672869E1,2.849694E1,6.428572E-2,-2.9411767E-2,-5E-2,3.846154E-2,-5.6E-2,-1.25E-2,9.170306E-3,4.920635E-2,-2.1568628E-2,8E-3,-2.3076924E-2,6.0000002E-2,1.1111111E-2,-5.121951E-2,-3.0769233E-2,-7.54717E-2,4.5454547E-2,-3.3333335E-2,2.0000001E-2,-7.2413795E-2,6.666667E-2,-2.0000001E-2,-3.3333335E-2,2.2222223E-2,-2.5E-2,6.666667E-2,8.196722E-3,4.6835445E-2,1.5384616E-2,-4.0000003E-2,6.0000002E-2,-0E0,1.1111111E-2,-6.363636E-2,-2.2222223E-2,5.4285716E-2],"split_indices":[9,23,4,11,0,0,4,24,17,24,22,25,23,15,5,9,25,15,4,14,5,15,8,11,18,0,15,0,0,20,0,14,18,16,11,17,16,15,18,18,2,11,0,9,1,0,0,9,9,0,0,0,0,0,0,0,0,0,0,0,0,0,0,0,0,0,0,0,0,0,0,0,0,0,0,0,0,0,0,0,0,0,0,0,0],"split_type":[0,0,0,0,0,0,0,0,0,0,0,0,0,0,0,0,0,0,0,0,0,0,0,0,0,0,0,0,0,0,0,0,0,0,0,0,0,0,0,0,0,0,0,0,0,0,0,0,0,0,0,0,0,0,0,0,0,0,0,0,0,0,0,0,0,0,0,0,0,0,0,0,0,0,0,0,0,0,0,0,0,0,0,0,0],"sum_hessian":[3.81E2,2.9425E2,8.675E1,2.1675E2,7.75E1,3.5E0,8.325E1,2.65E1,1.9025E2,5.25E1,2.5E1,5.475E1,2.85E1,1.65E1,1E1,2.025E1,1.7E2,1.775E1,3.475E1,1.125E1,1.375E1,3.475E1,2E1,1.425E1,1.425E1,9.25E0,7.25E0,9E0,1E0,1.85E1,1.75E0,7.1E1,9.9E1,5E0,1.275E1,3.1E1,3.75E0,7.75E0,3.5E0,6.25E0,7.5E0,3.3E1,1.75E0,1.7E1,3E0,1E0,1.325E1,3E0,1.125E1,6E0,3.25E0,5E0,2.25E0,1.15E1,7E0,5.625E1,1.475E1,5E1,4.9E1,2.25E0,2.75E0,3.5E0,9.25E0,5.5E0,2.55E1,1.75E0,2E0,1.5E0,6.25E0,2E0,1.5E0,2.75E0,3.5E0,1E0,6.5E0,1.425E1,1.875E1,5.5E0,1.15E1,1.5E0,1.5E0,1.25E0,1.75E0,3.5E0,7.75E0],"tree_param":{"num_deleted":"0","num_feature":"28","num_nodes":"85","size_leaf_vector":"1"}},{"base_weights":[3.412774E-3,-3.0041093E-1,1.7850089E-1,-6.1671835E-1,3.0791113E-1,4.1342288E-1,-1.2208562E-1,-9.1804326E-1,1.7357834E-1,5.569101E-1,-5.947181E-2,-1.5644516E-1,5.994219E-1,-7.4725986E-1,5.1830884E-2,6.938853E-2,-1.160674E0,1.1271162E0,-9.435285E-2,-3.95491E-1,7.202146E-1,5.049655E-1,-6.720247E-1,-3.1310686E-1,9.1542554E-1,7.378676E-1,-1.16359726E-1,5.2847635E-2,-9.8245096E-1,-8.550906E-1,1.513257E-1,-4.1584107E-1,1.1529518E0,-1.4866856E0,-7.144808E-1,7.706802E-2,-1.2410607E-2,-1.0192441E0,2.5642467E-1,-5.6862246E-2,4.0066607E-2,1.2802272E0,2.507811E-1,-2.2250822E-1,7.067218E-2,-1.004969E0,3.975455E-2,-1.3014525E-1,-1.0314232E0,6.9517255E-2,-1.150394E-2,7.950116E-1,-5.854744E-1,-1.037305E0,3.441162E-1,-1.194444E0,4.5824677E-2,1.0612538E-2,-1.0613134E0,2.5729313E-1,-7.3183507E-1,3.322426E-2,-4.35128E-2,7.133513E-2,1.0729015E-2,1.1972224E-2,-7.836371E-2,2.5488108E-2,-4.512257E-2,1.9779434E-2,-7.747344E-2,2.1778129E-2,-5.4575145E-2,-8.999385E-3,7.80425E-2,4.9354695E-2,-2.2501847E-2,3.8023826E-2,-4.08503E-2,8.831141E-3,-6.573177E-2,-2.5707534E-2,3.3156466E-2,-7.249033E-2,-1.44152595E-2,-2.414487E-3,4.5211807E-2,-6.557338E-2,3.2133013E-2,-6.9344066E-2,1.0034253E-2,5.7958197E-2,-1.6565239E-2,-6.971689E-2,-6.2808157E-3,1.0795808E-2,-6.756392E-2,-2.4605063E-3,2.625141E-2,1.581303E-2,-7.904532E-2],"categories":[],"categories_nodes":[],"categories_segments":[],"categories_sizes":[],"default_left":[0,0,0,0,0,0,0,0,0,0,0,0,0,0,0,0,0,0,0,0,0,0,0,0,0,0,0,0,0,0,0,0,0,0,0,0,0,0,0,0,0,0,0,0,0,0,0,0,0,0,0,0,0,0,0,0,0,0,0,0,0,0,0,0,0,0,0,0,0,0,0,0,0,0,0,0,0,0,0,0,0,0,0,0,0,0,0,0,0,0,0,0,0,0,0,0,0,0,0,0,0],"id":1,"left_children":[1,3,5,7,9,11,13,15,17,19,21,23,25,27,29,31,33,35,37,39,41,43,45,47,49,51,53,-1,55,57,59,61,63,65,67,-1,-1,69,71,-1,-1,73,75,77,-1,79,-1,81,83,-1,-1,85,87,89,91,93,-1,-1,95,97,99,-1,-1,-1,-1,-1,-1,-1,-1,-1,-1,-1,-1,-1,-1,-1,-1,-1,-1,-1,-1,-1,-1,-1,-1,-1,-1,-1,-1,-1,-1,-1,-1,-1,-1,-1,-1,-1,-1,-1,-1],"loss_changes":[2.0870646E1,2.779023E1,1.762548E1,2.271172E1,4.5829277E0,1.4925734E1,1.19940605E1,1.6544868E1,6.999892E0,4.91051E0,7.598517E0,6.201872E0,1.0560852E1,1.1220765E1,7.976157E0,8.102637E0,6.9706573E0,3.7985744E0,7.394483E0,5.348891E0,6.446327E0,7.913396E0,5.92681E0,4.0029287E0,2.9023116E0,7.173729E0,7.988341E0,0E0,9.849239E0,2.15063E0,7.6015306E0,5.8552823E0,9.139347E-1,4.6852264E0,6.268117E0,0E0,0E0,5.2991533E0,4.5174894E0,0E0,0E0,4.9912643E0,8.312168E0,4.857508E0,0E0,3.5244408E0,0E0,8.332223E0,1.5239463E0,0E0,0E0,7.9154243E0,4.630352E0,2.9821186E0,7.401725E0,4.097294E0,0E0,0E0,3.0684881E0,5.890494E0,8.283437E0,0E0,0E0,0E0,0E0,0E0,0E0,0E0,0E0,0E0,0E0,0E0,0E0,0E0,0E0,0E0,0E0,0E0,0E0,0E0,0E0,0E0,0E0,0E0,0E0,0E0,0E0,0E0,0E0,0E0,0E0,0E0,0E0,0E0,0E0,0E0,0E0,0E0,0E0,0E0,0E0],"parents":[2147483647,0,0,1,1,2,2,3,3,4,4,5,5,6,6,7,7,8,8,9,9,10,10,11,11,12,12,13,13,14,14,15,15,16,16,17,17,18,18,19,19,20,20,21,21,22,22,23,23,24,24,25,25,26,26,28,28,29,29,30,30,31,31,32,32,33,33,34,34,37,37,38,38,41,41,42,42,43,43,45,45,47,47,48,48,51,51,52,52,53,53,54,54,55,55,58,58,59,59,60,60],"right_children":[2,4,6,8,10,12,14,16,18,20,22,24,26,28,30,32,34,36,38,40,42,44,46,48,50,52,54,-1,56,58,60,62,64,66,68,-1,-1,70,72,-1,-1,74,76,78,-1,80,-1,82,84,-1,-1,86,88,90,92,94,-1,-1,96,98,100,-1,-1,-1,-1,-1,-1,-1,-1,-1,-1,-1,-1,-1,-1,-1,-1,-1,-1,-1,-1,-1,-1,-1,-1,-1,-1,-1,-1,-1,-1,-1,-1,-1,-1,-1,-1,-1,-1,-1,-1],"split_conditions":[6.262023E0,6.000892E0,1.5147429E1,7.312883E0,4.226726E1,4.3792667E0,2.5469297E1,2.7485939E1,-3.5598858E1,-3.8404003E1,3.7071323E1,4.2184185E1,6.504596E0,-3.6657375E1,1.8192617E1,6.2144747E0,3.38419E1,5.835561E1,2.5376154E1,4.5610016E1,-5.1796764E1,-4.019683E1,4.20971E1,6.816664E1,2.0769527E1,3.3344906E1,-3.9243694E1,5.2847635E-2,4.999274E1,2.8473253E1,1.8346207E1,-5.1214485E1,4.860772E1,-4.780233E1,1.7621386E1,7.706802E-2,-1.2410607E-2,3.20485E1,4.1035343E1,-5.6862246E-2,4.0066607E-2,2.158188E1,6.3609056E0,1.7714298E1,7.067218E-2,2.5834103E1,3.975455E-2,3.3450348E1,4.6706917E1,6.9517255E-2,-1.150394E-2,7.0913053E0,3.2979527E1,1.9643862E1,1.4183958E1,1.8318956E1,4.5824677E-2,1.0612538E-2,-3.6893993E1,-4.841812E1,3.999185E1,3.322426E-2,-4.35128E-2,7.133513E-2,1.0729015E-2,1.1972224E-2,-7.836371E-2,2.5488108E-2,-4.512257E-2,1.9779434E-2,-7.747344E-2,2.1778129E-2,-5.4575145E-2,-8.999385E-3,7.80425E-2,4.9354695E-2,-2.2501847E-2,3.8023826E-2,-4.08503E-2,8.831141E-3,-6.573177E-2,-2.5707534E-2,3.3156466E-2,-7.249033E-2,-1.44152595E-2,-2.414487E-3,4.5211807E-2,-6.557338E-2,3.2133013E-2,-6.9344066E-2,1.0034253E-2,5.7958197E-2,-1.6565239E-2,-6.971689E-2,-6.2808157E-3,1.0795808E-2,-6.756392E-2,-2.4605063E-3,2.625141E-2,1.581303E-2,-7.904532E-2],"split_indices":[7,14,15,21,18,14,2,23,18,5,11,12,7,5,17,7,18,13,1,20,25,11,13,27,17,23,26,0,20,23,15,6,13,18,16,0,0,24,12,0,0,16,14,1,0,2,0,24,5,0,0,21,2,16,15,15,0,0,18,11,20,0,0,0,0,0,0,0,0,0,0,0,0,0,0,0,0,0,0,0,0,0,0,0,0,0,0,0,0,0,0,0,0,0,0,0,0,0,0,0,0],"split_type":[0,0,0,0,0,0,0,0,0,0,0,0,0,0,0,0,0,0,0,0,0,0,0,0,0,0,0,0,0,0,0,0,0,0,0,0,0,0,0,0,0,0,0,0,0,0,0,0,0,0,0,0,0,0,0,0,0,0,0,0,0,0,0,0,0,0,0,0,0,0,0,0,0,0,0,0,0,0,0,0,0,0,0,0,0,0,0,0,0,0,0,0,0,0,0,0,0,0,0,0,0],"sum_hessian":[3.9032742E2,1.4244035E2,2.4788708E2,9.370371E1,4.8736645E1,1.389309E2,1.08956184E2,6.772126E1,2.5982454E1,2.8741085E1,1.999556E1,3.422634E1,1.0470455E2,2.2996058E1,8.596013E1,1.3498911E1,5.4222347E1,4.9958897E0,2.0986565E1,3.998691E0,2.4742393E1,1.04979E1,9.49766E0,3.0479439E1,3.7469041E0,8.77091E1,1.6995451E1,2.2490432E0,2.0747015E1,7.747283E0,7.8212845E1,9.749309E0,3.7496018E0,2.9983173E1,2.4239176E1,3.74668E0,1.2492095E0,5.246776E0,1.5739788E1,2.4994128E0,1.4992784E0,1.0495076E1,1.4247318E1,6.2490115E0,4.2488885E0,7.997685E0,1.4999747E0,2.5233437E1,5.2460012E0,2.4976516E0,1.2492526E0,8.4461174E1,3.2479255E0,5.2476153E0,1.1747836E1,1.8997213E1,1.7498008E0,1.2497514E0,6.4975314E0,7.0466484E1,7.746363E0,2.749754E0,6.9995546E0,2.4999037E0,1.2496983E0,1.2494712E0,2.8733704E1,2.9984562E0,2.1240719E1,1.4994962E0,3.74728E0,1.4490838E1,1.2489495E0,1.7496128E0,8.745463E0,6.7485166E0,7.498801E0,2.2498155E0,3.999196E0,1.7499708E0,6.2477145E0,1.7239882E1,7.993555E0,2.7479172E0,2.498084E0,9.748996E0,7.471218E1,1.998619E0,1.2493064E0,3.9983242E0,1.249291E0,4.999093E0,6.748743E0,1.5747536E1,3.249678E0,1.2494335E0,5.248098E0,3.3235107E1,3.7231377E1,3.747707E0,3.998656E0],"tree_param":{"num_deleted":"0","num_feature":"28","num_nodes":"101","size_leaf_vector":"1"}},{"base_weights":[-1.3871034E-2,-6.58501E-2,8.025049E-1,3.525002E-1,-1.7300822E-1,9.8592025E-1,-5.6717515E-2,6.7041266E-1,-2.6962242E-1,-6.601584E-1,-5.2595645E-2,-2.8557098E-2,1.1488065E0,1.2367707E0,4.120799E-1,-4.5228377E-1,6.483625E-2,-8.2508093E-1,8.426355E-1,-3.9782584E-1,7.874843E-2,1.4462563E0,6.383594E-1,1.9323486E-1,1.5309019E0,6.3235784E-1,-1.8302694E-1,-5.840205E-1,5.4713525E-2,-1.2685579E0,-1.0304004E-1,-1.06373215E-2,6.501591E-2,-6.2411577E-1,2.1084987E-1,-9.996865E-2,3.3727643E-1,9.264507E-3,1.5756159E0,1.8924734E-2,7.229908E-2,5.9916656E-2,-4.400546E-2,9.223641E-3,8.3676375E-2,1.2994947E-2,5.986917E-2,3.9163467E-2,-4.4913713E-2,-5.3037476E-2,-6.779057E-3,-3.4184463E-2,-8.549662E-2,2.4994066E-2,-2.9332532E-2,-5.966719E-2,-2.0061556E-2,4.0884525E-2,-2.4203649E-2,-4.2865317E-2,2.4194537E-4,2.7878234E-2,-6.454701E-3,8.6833894E-2,9.768999E-3,4.1041594E-2,-6.493555E-2],"categories":[],"categories_nodes":[],"categories_segments":[],"categories_sizes":[],"default_left":[0,0,0,0,0,0,0,0,0,0,0,0,0,0,0,0,0,0,0,0,0,0,0,0,0,0,0,0,0,0,0,0,0,0,0,0,0,0,0,0,0,0,0,0,0,0,0,0,0,0,0,0,0,0,0,0,0,0,0,0,0,0,0,0,0,0,0],"id":2,"left_children":[1,3,5,7,9,11,-1,13,15,17,19,-1,21,23,25,27,-1,29,31,33,35,37,39,41,43,45,47,49,-1,51,53,-1,-1,55,57,59,61,-1,63,65,-1,-1,-1,-1,-1,-1,-1,-1,-1,-1,-1,-1,-1,-1,-1,-1,-1,-1,-1,-1,-1,-1,-1,-1,-1,-1,-1],"loss_changes":[1.6633675E1,1.6570597E1,9.45437E0,1.5098408E1,1.7202187E1,6.2283382E0,0E0,6.835623E0,8.088725E0,1.5107719E1,1.0764147E1,0E0,2.1470814E0,4.3777676E0,4.8319607E0,5.574494E0,0E0,1.6810204E1,3.2933474E0,9.139509E0,7.9944963E0,1.6632519E0,4.592794E0,5.901282E0,1.9446297E0,5.2619915E0,7.9570246E0,4.767843E0,0E0,7.268936E0,6.4802685E0,0E0,0E0,5.60186E0,8.185518E0,8.151617E0,7.3305826E0,0E0,2.0477524E0,7.659205E0,0E0,0E0,0E0,0E0,0E0,0E0,0E0,0E0,0E0,0E0,0E0,0E0,0E0,0E0,0E0,0E0,0E0,0E0,0E0,0E0,0E0,0E0,0E0,0E0,0E0,0E0,0E0],"parents":[2147483647,0,0,1,1,2,2,3,3,4,4,5,5,7,7,8,8,9,9,10,10,12,12,13,13,14,14,15,15,17,17,18,18,19,19,20,20,21,21,22,22,23,23,24,24,25,25,26,26,27,27,29,29,30,30,33,33,34,34,35,35,36,36,38,38,39,39],"right_children":[2,4,6,8,10,12,-1,14,16,18,20,-1,22,24,26,28,-1,30,32,34,36,38,40,42,44,46,48,50,-1,52,54,-1,-1,56,58,60,62,-1,64,66,-1,-1,-1,-1,-1,-1,-1,-1,-1,-1,-1,-1,-1,-1,-1,-1,-1,-1,-1,-1,-1,-1,-1,-1,-1,-1,-1],"split_conditions":[5.951832E1,1.9378738E1,1.8346207E1,1.910287E1,6.1039376E0,-7.1337555E1,-5.6717515E-2,1.4788262E1,2.7321049E1,3.5481068E1,-5.9627182E1,-2.8557098E-2,5.9736725E1,-5.029642E1,5.035703E1,1.9333311E1,6.483625E-2,2.2641384E1,6.875251E0,2.6013767E1,2.6817158E1,2.7385975E1,3.356093E1,-5.2481197E1,-5.521307E1,6.98767E0,-5.17816E1,2.6359566E1,5.4713525E-2,-2.8622908E1,1.9517506E1,-1.06373215E-2,6.501591E-2,1.2444416E1,-4.283628E1,-6.2165184E1,1.5652522E1,9.264507E-3,7.2928176E0,6.564632E1,7.229908E-2,5.9916656E-2,-4.400546E-2,9.223641E-3,8.3676375E-2,1.2994947E-2,5.986917E-2,3.9163467E-2,-4.4913713E-2,-5.3037476E-2,-6.779057E-3,-3.4184463E-2,-8.549662E-2,2.4994066E-2,-2.9332532E-2,-5.966719E-2,-2.0061556E-2,4.0884525E-2,-2.4203649E-2,-4.2865317E-2,2.4194537E-4,2.7878234E-2,-6.454701E-3,8.6833894E-2,9.768999E-3,4.1041594E-2,-6.493555E-2],"split_indices":[11,1,15,8,7,27,0,8,2,3,4,0,6,20,4,1,0,17,17,19,9,2,3,25,27,21,6,10,0,12,9,0,0,15,5,27,15,0,0,27,0,0,0,0,0,0,0,0,0,0,0,0,0,0,0,0,0,0,0,0,0,0,0,0,0,0,0],"split_type":[0,0,0,0,0,0,0,0,0,0,0,0,0,0,0,0,0,0,0,0,0,0,0,0,0,0,0,0,0,0,0,0,0,0,0,0,0,0,0,0,0,0,0,0,0,0,0,0,0,0,0,0,0,0,0,0,0,0,0,0,0,0,0,0,0,0,0],"sum_hessian":[3.8973975E2,3.6727454E2,2.2465214E1,7.442527E1,2.9284927E2,2.0970345E1,1.4948705E0,4.920386E1,2.5221413E1,5.7151276E1,2.3569798E2,1.7486125E0,1.9221731E1,1.422658E1,3.497728E1,2.322433E1,1.997082E0,5.1905888E1,5.2453866E0,6.439931E1,1.7129868E2,1.0986384E1,8.235347E0,3.492533E0,1.0734047E1,2.5482409E1,9.494872E0,2.1974867E1,1.249464E0,3.1686905E1,2.0218983E1,1.7485431E0,3.4968436E0,4.6927505E1,1.74718E1,1.0164566E2,6.965302E1,1.2485164E0,9.737868E0,5.239872E0,2.9954748E0,1.7434694E0,1.7490637E0,1.2478039E0,9.486243E0,1.6238281E1,9.244127E0,3.9982073E0,5.4966645E0,9.989625E0,1.1985241E1,1.4724437E1,1.696247E1,8.9844055E0,1.1234578E1,1.1979308E1,3.4948196E1,9.232696E0,8.239105E0,1.1483837E1,9.016182E1,4.7174698E1,2.2478325E1,8.489023E0,1.2488451E0,3.4918125E0,1.7480593E0],"tree_param":{"num_deleted":"0","num_feature":"28","num_nodes":"67","size_leaf_vector":"1"}},{"base_weights":[-1.448829E-2,-6.399104E-2,7.0530176E-1,6.432734E-2,-4.0988845E-1,8.854521E-1,-3.985682E-2,3.1267756E-1,-6.1259486E-2,-1.05261E0,-7.561786E-2,1.0286336E0,-3.5804063E-2,8.0890134E-2,8.056525E-1,3.3285466E-1,-2.5287104E-1,3.1163496E-1,-1.1697506E0,-2.3699497E-1,4.7556534E-1,-2.0198436E-2,1.1548957E0,3.69258E-1,-3.7192985E-1,-6.040542E-1,9.7623974E-1,5.6587887E-1,-6.362445E-1,-7.620968E-1,-4.3757766E-2,5.44382E-2,-3.032947E-2,-1.3658409E0,-4.604319E-2,-8.147374E-2,-1.03183E0,-2.2705476E-1,9.747615E-1,-1.1455884E-2,1.2584168E0,-4.0736254E-2,2.4985539E-2,-7.046849E-2,1.5085874E-3,-5.78272E-2,1.3941093E-2,6.2573686E-2,1.4115495E-2,4.152505E-2,1.9390894E-3,-4.680309E-2,2.286661E-2,-6.882749E-2,5.9037316E-3,-3.7344087E-2,3.8909055E-3,-1.3723745E-2,-7.210609E-2,-4.318367E-2,4.9489897E-2,-3.161486E-2,6.882602E-3,2.562638E-2,-7.5429E-2,3.178035E-2,-6.0046323E-2,-2.032523E-2,6.474199E-2,7.7332295E-2,3.5975836E-2],"categories":[],"categories_nodes":[],"categories_segments":[],"categories_sizes":[],"default_left":[0,0,0,0,0,0,0,0,0,0,0,0,0,0,0,0,0,0,0,0,0,0,0,0,0,0,0,0,0,0,0,0,0,0,0,0,0,0,0,0,0,0,0,0,0,0,0,0,0,0,0,0,0,0,0,0,0,0,0,0,0,0,0,0,0,0,0,0,0,0,0],"id":3,"left_children":[1,3,5,7,9,11,-1,13,15,17,19,21,-1,23,25,27,29,31,33,35,37,-1,39,41,43,45,47,49,51,53,55,-1,-1,57,59,61,63,65,67,-1,69,-1,-1,-1,-1,-1,-1,-1,-1,-1,-1,-1,-1,-1,-1,-1,-1,-1,-1,-1,-1,-1,-1,-1,-1,-1,-1,-1,-1,-1,-1],"loss_changes":[1.4061951E1,1.640377E1,7.579808E0,8.440497E0,2.1400312E1,6.0454006E0,0E0,1.0315295E1,1.3689304E1,5.818775E0,6.058879E0,4.384796E0,0E0,8.351194E0,7.5495586E0,1.3766849E1,1.2935756E1,3.1497176E0,6.9092445E0,6.3904896E0,5.6481915E0,0E0,3.1776543E0,6.4203176E0,1.0459555E1,2.1477036E0,4.6506786E0,6.717246E0,4.3556705E0,1.930418E1,7.529183E0,0E0,0E0,1.8440552E0,5.712919E0,5.5054555E0,7.0208797E0,6.8439603E0,4.609089E0,0E0,1.8254757E0,0E0,0E0,0E0,0E0,0E0,0E0,0E0,0E0,0E0,0E0,0E0,0E0,0E0,0E0,0E0,0E0,0E0,0E0,0E0,0E0,0E0,0E0,0E0,0E0,0E0,0E0,0E0,0E0,0E0,0E0],"parents":[2147483647,0,0,1,1,2,2,3,3,4,4,5,5,7,7,8,8,9,9,10,10,11,11,13,13,14,14,15,15,16,16,17,17,18,18,19,19,20,20,22,22,23,23,24,24,25,25,26,26,27,27,28,28,29,29,30,30,33,33,34,34,35,35,36,36,37,37,38,38,40,40],"right_children":[2,4,6,8,10,12,-1,14,16,18,20,22,-1,24,26,28,30,32,34,36,38,-1,40,42,44,46,48,50,52,54,56,-1,-1,58,60,62,64,66,68,-1,70,-1,-1,-1,-1,-1,-1,-1,-1,-1,-1,-1,-1,-1,-1,-1,-1,-1,-1,-1,-1,-1,-1,-1,-1,-1,-1,-1,-1,-1,-1],"split_conditions":[5.951832E1,2.4839418E1,3.686313E1,-5.054405E1,7.2606215E0,1.8346207E1,-3.985682E-2,2.19974E1,1.9358309E1,2.7823181E1,6.936589E1,6.267273E0,-3.5804063E-2,1.5241454E1,1.6478518E1,6.4318523E0,6.084456E0,-3.270582E1,2.7164852E1,3.650939E1,-4.865003E1,-2.0198436E-2,-7.1337555E1,1.8553392E1,-5.5210564E1,2.3298836E1,3.033544E1,4.9582745E1,2.4778639E1,2.2971684E1,-6.1324318E1,5.44382E-2,-3.032947E-2,2.1773895E1,3.324193E1,1.3629832E1,1.0057481E1,-4.053612E1,2.6263687E1,-1.1455884E-2,4.055383E1,-4.0736254E-2,2.4985539E-2,-7.046849E-2,1.5085874E-3,-5.78272E-2,1.3941093E-2,6.2573686E-2,1.4115495E-2,4.152505E-2,1.9390894E-3,-4.680309E-2,2.286661E-2,-6.882749E-2,5.9037316E-3,-3.7344087E-2,3.8909055E-3,-1.3723745E-2,-7.210609E-2,-4.318367E-2,4.9489897E-2,-3.161486E-2,6.882602E-3,2.562638E-2,-7.5429E-2,3.178035E-2,-6.0046323E-2,-2.032523E-2,6.474199E-2,7.7332295E-2,3.5975836E-2],"split_indices":[11,22,24,11,0,15,0,1,1,2,6,7,0,15,17,7,7,11,1,24,5,0,27,1,25,22,2,25,17,17,25,0,0,1,2,15,15,11,22,0,12,0,0,0,0,0,0,0,0,0,0,0,0,0,0,0,0,0,0,0,0,0,0,0,0,0,0,0,0,0,0],"split_type":[0,0,0,0,0,0,0,0,0,0,0,0,0,0,0,0,0,0,0,0,0,0,0,0,0,0,0,0,0,0,0,0,0,0,0,0,0,0,0,0,0,0,0,0,0,0,0,0,0,0,0,0,0,0,0,0,0,0,0,0,0,0,0,0,0,0,0,0,0,0,0],"sum_hessian":[3.923818E2,3.6798514E2,2.4396666E1,2.6900555E2,9.897959E1,2.2151268E1,2.245398E0,8.984523E1,1.7916031E2,3.3129875E1,6.5849724E1,2.0661768E1,1.4894991E0,6.1903477E1,2.7941753E1,5.836852E1,1.20791794E2,2.4884517E0,3.0641422E1,5.1377335E1,1.4472388E1,1.4953783E0,1.916639E1,3.7931942E1,2.3971535E1,2.74192E0,2.5199833E1,4.7389565E1,1.0978955E1,3.4393486E1,8.639831E1,1.2471839E0,1.2412678E0,2.5905376E1,4.736045E0,4.3891766E1,7.485569E0,6.2378106E0,8.234578E0,1.2494023E0,1.7916988E1,3.2440195E0,3.468792E1,5.996162E0,1.7975372E1,1.495861E0,1.2460591E0,1.7468021E1,7.7318125E0,3.116698E1,1.6222584E1,8.729651E0,2.2493036E0,1.9921919E1,1.4471565E1,1.1978473E1,7.441984E1,1.9927613E0,2.3912617E1,2.7397013E0,1.9963434E0,1.1954874E1,3.193689E1,1.7480352E0,5.7375336E0,3.4919548E0,2.7458558E0,1.4983937E0,6.736184E0,1.0455101E1,7.4618864E0],"tree_param":{"num_deleted":"0","num_feature":"28","num_nodes":"71","size_leaf_vector":"1"}},{"base_weights":[2.6946396E-3,-2.5947565E-1,1.5908805E-1,4.458613E-1,-5.4491943E-1,3.2079864E-1,-2.3778518E-1,7.380261E-1,-9.361104E-3,-7.369514E-1,1.2351029E-1,-1.9502257E-1,4.1980156E-1,4.1562873E-3,-7.5729275E-1,-2.6988E-1,9.35925E-1,3.4112257E-1,-8.9262885E-1,-9.8589295E-1,2.523685E-1,-6.633029E-1,4.3634102E-1,-5.443023E-1,8.1175625E-1,6.397029E-1,4.1940875E-2,1.1695248E0,-1.6909134E-1,2.7892745E-1,-1.4668931E0,-4.766364E-2,1.963557E-2,1.0977242E0,-1.3111953E-1,6.599714E-1,-6.410976E-1,-3.6214252E-3,-6.858548E-2,-1.5709634E0,-7.657973E-1,-5.7380002E-2,5.7382005E-1,4.28165E-2,-6.525639E-2,8.107935E-1,-2.1776795E-1,-1.0329225E0,-4.0519956E-2,-2.4017563E-2,1.2684026E0,1.4038004E-1,8.3265156E-1,1.2643267E-1,-6.643823E-2,6.8094023E-3,7.606047E-2,4.4219387E-1,-3.9424273E-1,-5.638721E-1,9.357152E-1,-8.307758E-3,-8.2311295E-2,6.01929E-2,-1.13174E-2,-3.95877E-2,3.305615E-2,-3.161417E-3,6.331992E-2,-5.8673013E-2,1.1740603E-2,-8.306896E-2,-3.4145206E-2,5.5668432E-2,-4.403221E-2,5.1645964E-2,-7.5164572E-3,6.7316025E-2,2.0509346E-3,-5.3365212E-2,4.3058496E-2,1.0741174E-2,-6.460609E-2,1.5672794E-2,-5.3067405E-2,7.383711E-2,2.416259E-2,2.8270394E-2,-2.8568117E-2,4.8932854E-2,9.62933E-3,-1.6381182E-3,5.2280184E-2,-3.764372E-2,5.5648535E-2,-4.172718E-2,2.7114442E-2,-5.4188874E-2,1.9392956E-2,1.4344046E-2,6.592421E-2],"categories":[],"categories_nodes":[],"categories_segments":[],"categories_sizes":[],"default_left":[0,0,0,0,0,0,0,0,0,0,0,0,0,0,0,0,0,0,0,0,0,0,0,0,0,0,0,0,0,0,0,0,0,0,0,0,0,0,0,0,0,0,0,0,0,0,0,0,0,0,0,0,0,0,0,0,0,0,0,0,0,0,0,0,0,0,0,0,0,0,0,0,0,0,0,0,0,0,0,0,0,0,0,0,0,0,0,0,0,0,0,0,0,0,0,0,0,0,0,0,0],"id":4,"left_children":[1,3,5,7,9,11,13,15,17,19,21,23,25,27,29,31,33,35,37,39,41,43,45,47,49,51,53,55,57,59,61,-1,-1,63,65,67,69,-1,-1,71,73,-1,75,-1,-1,77,79,81,83,-1,85,87,89,91,-1,-1,-1,93,95,97,99,-1,-1,-1,-1,-1,-1,-1,-1,-1,-1,-1,-1,-1,-1,-1,-1,-1,-1,-1,-1,-1,-1,-1,-1,-1,-1,-1,-1,-1,-1,-1,-1,-1,-1,-1,-1,-1,-1,-1,-1],"loss_changes":[1.5832696E1,2.9292473E1,1.5598221E1,5.6086693E0,1.3333475E1,8.879E0,8.875845E0,5.372077E0,5.707199E0,2.0021908E1,6.167352E0,1.0436294E1,1.2008383E1,1.0122334E1,1.6905762E1,2.6332412E0,3.8865204E0,4.56269E0,1.9574318E0,7.0832863E0,8.280544E0,8.1307E0,4.509443E0,5.2997346E0,5.1655273E0,8.697411E0,6.462893E0,2.150734E0,6.1844673E0,6.0404105E0,2.8699493E0,0E0,0E0,2.932726E0,2.4848518E0,4.6724877E0,2.0225534E0,0E0,0E0,2.0146179E-1,1.149291E1,0E0,4.9562526E0,0E0,0E0,4.669668E0,7.5446863E0,3.8270073E0,4.5694857E0,0E0,2.645998E-1,8.400736E0,5.9594154E0,7.659525E0,0E0,0E0,0E0,1.0638521E1,1.3830343E1,2.887415E0,1.1052341E0,0E0,0E0,0E0,0E0,0E0,0E0,0E0,0E0,0E0,0E0,0E0,0E0,0E0,0E0,0E0,0E0,0E0,0E0,0E0,0E0,0E0,0E0,0E0,0E0,0E0,0E0,0E0,0E0,0E0,0E0,0E0,0E0,0E0,0E0,0E0,0E0,0E0,0E0,0E0,0E0],"parents":[2147483647,0,0,1,1,2,2,3,3,4,4,5,5,6,6,7,7,8,8,9,9,10,10,11,11,12,12,13,13,14,14,15,15,16,16,17,17,18,18,19,19,20,20,21,21,22,22,23,23,24,24,25,25,26,26,27,27,28,28,29,29,30,30,33,33,34,34,35,35,36,36,39,39,40,40,42,42,45,45,46,46,47,47,48,48,50,50,51,51,52,52,53,53,57,57,58,58,59,59,60,60],"right_children":[2,4,6,8,10,12,14,16,18,20,22,24,26,28,30,32,34,36,38,40,42,44,46,48,50,52,54,56,58,60,62,-1,-1,64,66,68,70,-1,-1,72,74,-1,76,-1,-1,78,80,82,84,-1,86,88,90,92,-1,-1,-1,94,96,98,100,-1,-1,-1,-1,-1,-1,-1,-1,-1,-1,-1,-1,-1,-1,-1,-1,-1,-1,-1,-1,-1,-1,-1,-1,-1,-1,-1,-1,-1,-1,-1,-1,-1,-1,-1,-1,-1,-1,-1,-1],"split_conditions":[6.262023E0,2.7453934E1,6.444454E0,4.9784454E1,7.314845E0,4.284208E0,7.196639E0,2.3060799E1,4.375772E1,6.2159348E0,2.5291767E1,2.3267275E1,2.0357964E1,1.3490522E1,-6.197742E1,1.6721588E1,5.2721626E1,4.3960873E1,-5.29082E1,1.3407704E1,6.7255564E0,-5.216723E1,4.9281372E1,-5.954053E1,3.7580764E0,2.5999628E1,4.3403217E1,-3.763953E1,-5.3266136E1,6.1284138E1,-6.836081E1,-4.766364E-2,1.963557E-2,2.677389E1,1.9989431E1,5.9932513E0,1.9957975E1,-3.6214252E-3,-6.858548E-2,5.1187035E1,3.7274845E0,-5.7380002E-2,5.6945187E1,4.28165E-2,-6.525639E-2,6.924229E1,-4.582818E1,7.287826E0,4.1613045E0,-2.4017563E-2,5.8603264E1,5.666818E1,3.1598269E1,7.2582183E0,-6.643823E-2,6.8094023E-3,7.606047E-2,2.5583065E1,4.127225E1,-6.3829433E1,5.5265896E1,-8.307758E-3,-8.2311295E-2,6.01929E-2,-1.13174E-2,-3.95877E-2,3.305615E-2,-3.161417E-3,6.331992E-2,-5.8673013E-2,1.1740603E-2,-8.306896E-2,-3.4145206E-2,5.5668432E-2,-4.403221E-2,5.1645964E-2,-7.5164572E-3,6.7316025E-2,2.0509346E-3,-5.3365212E-2,4.3058496E-2,1.0741174E-2,-6.460609E-2,1.5672794E-2,-5.3067405E-2,7.383711E-2,2.416259E-2,2.8270394E-2,-2.8568117E-2,4.8932854E-2,9.62933E-3,-1.6381182E-3,5.2280184E-2,-3.764372E-2,5.5648535E-2,-4.172718E-2,2.7114442E-2,-5.4188874E-2,1.9392956E-2,1.4344046E-2,6.592421E-2],"split_indices":[7,23,7,4,21,14,0,2,18,14,1,8,16,15,27,15,25,13,25,15,0,11,13,4,14,10,12,18,13,4,4,0,0,2,1,7,16,0,0,11,14,0,27,0,0,25,5,21,14,0,11,25,2,0,0,0,0,2,18,27,11,0,0,0,0,0,0,0,0,0,0,0,0,0,0,0,0,0,0,0,0,0,0,0,0,0,0,0,0,0,0,0,0,0,0,0,0,0,0,0,0],"split_type":[0,0,0,0,0,0,0,0,0,0,0,0,0,0,0,0,0,0,0,0,0,0,0,0,0,0,0,0,0,0,0,0,0,0,0,0,0,0,0,0,0,0,0,0,0,0,0,0,0,0,0,0,0,0,0,0,0,0,0,0,0,0,0,0,0,0,0,0,0,0,0,0,0,0,0,0,0,0,0,0,0,0,0,0,0,0,0,0,0,0,0,0,0,0,0,0,0,0,0,0,0],"sum_hessian":[3.841405E2,1.4328514E2,2.4085535E2,4.111852E1,1.02166626E2,1.7126367E2,6.959168E1,2.4666288E1,1.645223E1,7.928614E1,2.2880482E1,2.7421797E1,1.4384187E2,4.815655E1,2.1435135E1,3.9885807E0,2.0677708E1,1.2217916E1,4.234316E0,6.334913E1,1.5937012E1,6.1904087E0,1.6690073E1,2.0699816E1,6.7219825E0,9.048809E1,5.3353775E1,5.4883027E0,4.2668247E1,8.95914E0,1.2475994E1,1.7475078E0,2.241073E0,1.7930153E1,2.7475545E0,9.47139E0,2.7465258E0,1.9857812E0,2.2485347E0,1.5639006E1,4.7710125E1,2.4960952E0,1.3440917E1,1.7389435E0,4.4514656E0,1.0461641E1,6.2284303E0,9.974845E0,1.072497E1,1.7417338E0,4.980249E0,2.5702175E1,6.478592E1,5.1111E1,2.2427773E0,1.7458386E0,3.742464E0,1.1225923E1,3.1442324E1,3.985876E0,4.973264E0,1.7450806E0,1.0730913E1,1.6683632E1,1.2465215E0,1.4985565E0,1.248998E0,4.7283235E0,4.7430663E0,1.4969816E0,1.249544E0,1.3403554E1,2.2354512E0,2.2471435E0,4.5462982E1,7.9649034E0,5.4760137E0,5.727842E0,4.7338E0,3.490699E0,2.7377312E0,1.745153E0,8.229692E0,8.478098E0,2.2468717E0,3.2397442E0,1.7405047E0,1.6221098E1,9.481076E0,5.2321774E1,1.2464141E1,4.4387672E1,6.7233286E0,3.9917524E0,7.2341704E0,2.1461374E1,9.98095E0,2.4880033E0,1.4978727E0,2.4944293E0,2.478835E0],"tree_param":{"num_deleted":"0","num_feature":"28","num_nodes":"101","size_leaf_vector":"1"}},{"base_weights":[2.1573054E-2,3.6215952E-1,-9.454451E-2,5.9687716E-1,-2.2443719E-1,-6.331053E-1,1.02484465E-1,-5.1989776E-1,6.5382975E-1,6.2005734E-1,-6.200742E-1,-7.500139E-1,3.1809932E-1,-1.0098032E0,1.3802142E-1,1.7561208E-2,-5.9055846E-2,5.39162E-1,1.1315308E0,-1.176626E-2,1.0620917E0,-1.082063E0,3.0901197E-1,-3.9383614E-1,-1.1813494E0,-3.1510004E-1,9.224337E-1,2.0757612E-2,-7.490455E-2,-4.6190876E-3,4.8629013E-1,-3.6450338E-2,5.987299E-1,1.3642334E0,-8.262845E-3,5.2637637E-2,-6.461868E-1,-6.531726E-4,7.219514E-2,1.6964456E-2,-1.2838637E0,5.747459E-2,-3.434233E-1,-5.167318E-1,6.8013036E-1,-1.4214749E0,-2.7555206E-1,-9.45971E-1,3.7853636E-2,-1.1852997E-2,6.849892E-2,1.643709E-1,-3.6428183E-1,5.679567E-1,-9.0128E-1,4.1419834E-2,1.1316598E-2,7.480766E-2,1.0816454E-2,-5.9085604E-2,1.1786276E-2,8.6503755E-3,-7.7177025E-2,3.3820193E-2,-6.252812E-2,3.148364E-2,-3.2947734E-2,6.44777E-2,-8.849204E-3,-4.849178E-3,-7.597985E-2,4.3959793E-2,-4.967003E-2,-1.1901895E-2,-6.0185462E-2,-1.0282798E-2,1.9381782E-2,-2.5754271E-2,2.2509849E-2,3.370143E-2,-2.0523788E-2,-1.0349915E-2,-5.8128364E-2],"categories":[],"categories_nodes":[],"categories_segments":[],"categories_sizes":[],"default_left":[0,0,0,0,0,0,0,0,0,0,0,0,0,0,0,0,0,0,0,0,0,0,0,0,0,0,0,0,0,0,0,0,0,0,0,0,0,0,0,0,0,0,0,0,0,0,0,0,0,0,0,0,0,0,0,0,0,0,0,0,0,0,0,0,0,0,0,0,0,0,0,0,0,0,0,0,0,0,0,0,0,0,0],"id":5,"left_children":[1,3,5,7,9,11,13,15,17,19,21,23,25,27,29,-1,-1,31,33,35,37,39,41,43,45,47,49,-1,-1,51,53,-1,55,57,-1,-1,59,-1,-1,-1,61,-1,63,65,67,69,71,73,-1,-1,-1,75,77,79,81,-1,-1,-1,-1,-1,-1,-1,-1,-1,-1,-1,-1,-1,-1,-1,-1,-1,-1,-1,-1,-1,-1,-1,-1,-1,-1,-1,-1],"loss_changes":[1.5337935E1,1.3708724E1,3.0770662E1,4.8360443E0,1.0041353E1,8.873331E0,8.547757E0,2.7114396E0,3.098486E0,2.727418E0,8.997085E0,1.0204014E1,3.8115554E0,5.288046E0,1.0286281E1,0E0,0E0,4.7051907E0,3.9056158E0,4.0506005E0,2.3712316E0,4.3656254E0,4.4967723E0,5.569825E0,6.331276E0,4.2595577E0,2.8998957E0,0E0,0E0,9.046474E0,7.3292294E0,0E0,4.4755917E0,1.2584934E0,0E0,0E0,2.0480144E0,0E0,0E0,0E0,4.8852005E0,0E0,5.45425E0,6.292034E0,2.574347E0,2.9966545E0,7.270666E0,3.9634395E-1,0E0,0E0,0E0,8.446956E0,6.0753284E0,6.2370567E0,4.3610382E-1,0E0,0E0,0E0,0E0,0E0,0E0,0E0,0E0,0E0,0E0,0E0,0E0,0E0,0E0,0E0,0E0,0E0,0E0,0E0,0E0,0E0,0E0,0E0,0E0,0E0,0E0,0E0,0E0],"parents":[2147483647,0,0,1,1,2,2,3,3,4,4,5,5,6,6,7,7,8,8,9,9,10,10,11,11,12,12,13,13,14,14,17,17,18,18,19,19,20,20,21,21,22,22,23,23,24,24,25,25,26,26,29,29,30,30,32,32,33,33,36,36,40,40,42,42,43,43,44,44,45,45,46,46,47,47,51,51,52,52,53,53,54,54],"right_children":[2,4,6,8,10,12,14,16,18,20,22,24,26,28,30,-1,-1,32,34,36,38,40,42,44,46,48,50,-1,-1,52,54,-1,56,58,-1,-1,60,-1,-1,-1,62,-1,64,66,68,70,72,74,-1,-1,-1,76,78,80,82,-1,-1,-1,-1,-1,-1,-1,-1,-1,-1,-1,-1,-1,-1,-1,-1,-1,-1,-1,-1,-1,-1,-1,-1,-1,-1,-1,-1],"split_conditions":[1.9897074E1,1.9535093E1,2.5120989E1,1.2406377E1,5.587608E0,3.324193E1,-7.208508E1,-3.1835588E1,5.5616543E1,-5.2315887E1,2.2243376E1,2.2891436E1,-4.888024E1,-5.0515564E1,2.9214775E1,1.7561208E-2,-5.9055846E-2,4.9605308E0,5.0747787E1,5.1702924E0,1.2758972E1,1.3843378E1,-3.4964275E1,1.9686054E1,6.123596E0,5.688094E0,3.419199E1,2.0757612E-2,-7.490455E-2,1.5147429E1,4.507201E1,-3.6450338E-2,3.2379654E1,5.832552E1,-8.262845E-3,5.2637637E-2,1.4526349E1,-6.531726E-4,7.219514E-2,1.6964456E-2,-5.6772514E1,5.747459E-2,-5.0315884E1,2.0407248E1,-3.8493168E1,-3.446087E1,-2.6912655E1,2.8783998E1,3.7853636E-2,-1.1852997E-2,6.849892E-2,6.3011117E0,2.3199535E1,7.157565E1,2.2943865E1,4.1419834E-2,1.1316598E-2,7.480766E-2,1.0816454E-2,-5.9085604E-2,1.1786276E-2,8.6503755E-3,-7.7177025E-2,3.3820193E-2,-6.252812E-2,3.148364E-2,-3.2947734E-2,6.44777E-2,-8.849204E-3,-4.849178E-3,-7.597985E-2,4.3959793E-2,-4.967003E-2,-1.1901895E-2,-6.0185462E-2,-1.0282798E-2,1.9381782E-2,-2.5754271E-2,2.2509849E-2,3.370143E-2,-2.0523788E-2,-1.0349915E-2,-5.8128364E-2],"split_indices":[1,8,10,15,14,2,4,12,27,6,16,22,5,5,10,0,0,7,11,14,15,15,26,8,14,12,2,0,0,15,20,0,26,25,0,0,15,0,0,0,13,0,27,22,5,12,12,22,0,0,0,7,8,25,8,0,0,0,0,0,0,0,0,0,0,0,0,0,0,0,0,0,0,0,0,0,0,0,0,0,0,0,0],"split_type":[0,0,0,0,0,0,0,0,0,0,0,0,0,0,0,0,0,0,0,0,0,0,0,0,0,0,0,0,0,0,0,0,0,0,0,0,0,0,0,0,0,0,0,0,0,0,0,0,0,0,0,0,0,0,0,0,0,0,0,0,0,0,0,0,0,0,0,0,0,0,0,0,0,0,0,0,0,0,0,0,0,0,0],"sum_hessian":[3.8596436E2,9.759318E1,2.883712E2,6.969019E1,2.7902985E1,7.664789E1,2.117233E2,2.9871402E0,6.670306E1,8.720876E0,1.918211E1,6.8446884E1,8.201009E0,5.7062182E0,2.0601709E2,1.49128E0,1.4958602E0,5.5507618E1,1.1195436E1,3.990467E0,4.730409E0,1.2701585E1,6.480524E0,3.8537434E1,2.9909447E1,4.2385798E0,3.9624288E0,1.494537E0,4.211681E0,1.4685597E2,5.916111E1,1.9861141E0,5.3521503E1,9.448022E0,1.7474142E0,1.2438948E0,2.746572E0,1.492739E0,3.23767E0,1.4944375E0,1.1207148E1,2.4991817E0,3.9813423E0,3.5045933E1,3.491503E0,2.3191978E1,6.7174687E0,2.7425554E0,1.4960246E0,1.2344749E0,2.727954E0,1.00281166E2,4.6574802E1,5.6430527E1,2.730581E0,3.234752E1,2.1173986E1,8.202046E0,1.2459754E0,1.4973754E0,1.2491968E0,1.745891E0,9.461256E0,1.9939977E0,1.9873446E0,3.48967E0,3.1556261E1,1.7457293E0,1.7457737E0,1.7367661E0,2.1455212E1,2.4889386E0,4.2285304E0,1.2453902E0,1.4971651E0,3.776702E1,6.2514145E1,3.9608704E1,6.9661E0,5.119192E1,5.2386065E0,1.2366993E0,1.4938818E0],"tree_param":{"num_deleted":"0","num_feature":"28","num_nodes":"83","size_leaf_vector":"1"}},{"base_weights":[-4.19921E-3,-4.945596E-2,7.032102E-1,9.569729E-2,-3.4418547E-1,9.032275E-1,-4.7660414E-2,2.4940465E-2,1.0761077E0,-5.496356E-1,1.0840847E-1,1.0236839E0,-2.8919E-2,-7.496036E-1,8.931958E-2,1.1897288E-1,1.3483907E0,-8.226864E-1,1.0215401E-1,-9.9686265E-1,3.6322695E-1,1.3584968E0,3.4203556E-1,-2.2321711E-1,-1.2375009E0,3.0183315E-1,-7.684977E-2,5.6967687E-2,-3.5121042E-2,-3.5020895E-3,7.8940794E-2,5.6477815E-2,-8.937892E-1,-4.966686E-1,5.5309176E-1,1.187351E-2,-1.2820046E0,5.8351195E-1,-7.4555373E-1,6.019112E-1,7.969394E-2,-6.915993E-1,9.3839556E-1,3.859691E-2,-3.122889E-2,-7.7418625E-2,-2.3201425E-2,2.8627206E-2,1.0302913E-3,-7.3536607E-3,3.5667427E-2,-1.0444399E-2,-5.5313833E-2,-5.4573674E-2,2.1078119E-2,3.9420467E-2,-2.7038937E-2,-1.7935378E-2,-7.48632E-2,6.448909E-3,4.947479E-2,8.667307E-4,-6.6803314E-2,-1.2961476E-2,5.9674513E-2,6.092921E-3,-5.962896E-2,6.721319E-2,-4.2328485E-3],"categories":[],"categories_nodes":[],"categories_segments":[],"categories_sizes":[],"default_left":[0,0,0,0,0,0,0,0,0,0,0,0,0,0,0,0,0,0,0,0,0,0,0,0,0,0,0,0,0,0,0,0,0,0,0,0,0,0,0,0,0,0,0,0,0,0,0,0,0,0,0,0,0,0,0,0,0,0,0,0,0,0,0,0,0,0,0,0,0],"id":6,"left_children":[1,3,5,7,9,11,-1,13,15,17,19,21,-1,23,25,27,29,31,33,35,37,39,41,43,45,47,49,-1,-1,-1,-1,-1,51,53,55,-1,57,59,61,63,-1,65,67,-1,-1,-1,-1,-1,-1,-1,-1,-1,-1,-1,-1,-1,-1,-1,-1,-1,-1,-1,-1,-1,-1,-1,-1,-1,-1],"loss_changes":[1.2362006E1,1.5555015E1,8.553344E0,1.6891512E1,1.1212615E1,4.3809433E0,0E0,1.1460506E1,4.111702E0,1.4795263E1,1.1144329E1,4.098606E0,0E0,4.254341E0,7.5042915E0,4.7624264E0,4.250162E0,9.111389E0,7.104968E0,2.9228792E0,8.212793E0,1.3685875E0,5.532589E0,4.3587885E0,1.4299536E0,7.080927E0,6.746298E0,0E0,0E0,0E0,0E0,0E0,8.045856E0,6.682268E0,4.2622185E0,0E0,6.9511795E-1,4.878166E0,2.5986185E0,2.7081194E0,0E0,1.5611893E0,2.3760438E0,0E0,0E0,0E0,0E0,0E0,0E0,0E0,0E0,0E0,0E0,0E0,0E0,0E0,0E0,0E0,0E0,0E0,0E0,0E0,0E0,0E0,0E0,0E0,0E0,0E0,0E0],"parents":[2147483647,0,0,1,1,2,2,3,3,4,4,5,5,7,7,8,8,9,9,10,10,11,11,13,13,14,14,15,15,16,16,17,17,18,18,19,19,20,20,21,21,22,22,23,23,24,24,25,25,26,26,32,32,33,33,34,34,36,36,37,37,38,38,39,39,41,41,42,42],"right_children":[2,4,6,8,10,12,-1,14,16,18,20,22,-1,24,26,28,30,32,34,36,38,40,42,44,46,48,50,-1,-1,-1,-1,-1,52,54,56,-1,58,60,62,64,-1,66,68,-1,-1,-1,-1,-1,-1,-1,-1,-1,-1,-1,-1,-1,-1,-1,-1,-1,-1,-1,-1,-1,-1,-1,-1,-1,-1],"split_conditions":[5.951832E1,3.096662E1,3.686313E1,6.2311596E1,2.8083736E1,1.8346207E1,-4.7660414E-2,1.6856253E1,2.7911816E1,7.313749E0,3.9103386E0,6.190879E1,-2.8919E-2,2.8778137E1,-5.2481197E1,2.7453934E1,1.5389485E1,1.9934498E1,-1.2318729E1,2.8430609E1,2.2225264E1,3.0003162E1,2.8465433E1,-3.3266613E1,3.605501E1,2.7300127E1,5.9552364E1,5.6967687E-2,-3.5121042E-2,-3.5020895E-3,7.8940794E-2,5.6477815E-2,-5.4093967E1,-5.2993555E0,7.239659E1,1.187351E-2,-7.238427E1,6.2572308E1,2.9231747E1,2.3929483E1,7.969394E-2,3.2809303E1,1.6284279E1,3.859691E-2,-3.122889E-2,-7.7418625E-2,-2.3201425E-2,2.8627206E-2,1.0302913E-3,-7.3536607E-3,3.5667427E-2,-1.0444399E-2,-5.5313833E-2,-5.4573674E-2,2.1078119E-2,3.9420467E-2,-2.7038937E-2,-1.7935378E-2,-7.48632E-2,6.448909E-3,4.947479E-2,8.667307E-4,-6.6803314E-2,-1.2961476E-2,5.9674513E-2,6.092921E-3,-5.962896E-2,6.721319E-2,-4.2328485E-3],"split_indices":[11,23,24,27,9,15,0,17,2,21,14,11,0,23,25,23,17,1,19,9,17,10,9,12,12,2,4,0,0,0,0,0,11,26,27,0,25,4,9,1,0,24,15,0,0,0,0,0,0,0,0,0,0,0,0,0,0,0,0,0,0,0,0,0,0,0,0,0,0],"split_type":[0,0,0,0,0,0,0,0,0,0,0,0,0,0,0,0,0,0,0,0,0,0,0,0,0,0,0,0,0,0,0,0,0,0,0,0,0,0,0,0,0,0,0,0,0,0,0,0,0,0,0,0,0,0,0,0,0,0,0,0,0,0,0,0,0,0,0,0,0],"sum_hessian":[3.840448E2,3.6182687E2,2.2217907E1,2.428831E2,1.1894378E2,2.0229809E1,1.9880979E0,2.2749043E2,1.5392684E1,8.166048E1,3.7283302E1,1.8994598E1,1.2352101E0,1.6640865E1,2.1084956E2,3.727309E0,1.1665375E1,5.736617E1,2.4294304E1,6.439597E0,3.0843702E1,1.2072067E1,6.922531E0,8.705795E0,7.9350696E0,9.216436E1,1.18685196E2,1.4896655E0,2.2376435E0,1.7274866E0,9.937889E0,1.4927962E0,5.5873375E1,1.039236E1,1.3901944E1,1.2398174E0,5.19978E0,2.6126753E1,4.71695E0,3.7086318E0,8.363436E0,2.4742908E0,4.4482403E0,2.2366996E0,6.4690957E0,4.9455314E0,2.989538E0,4.6432404E1,4.573196E1,1.0974614E2,8.939054E0,1.3699488E1,4.2173885E1,6.1924143E0,4.1999454E0,1.1670574E1,2.2313704E0,1.4872067E0,3.7125733E0,1.2948024E1,1.317873E1,2.4815972E0,2.2353525E0,1.739013E0,1.9696188E0,1.2314706E0,1.2428204E0,2.959977E0,1.4882634E0],"tree_param":{"num_deleted":"0","num_feature":"28","num_nodes":"69","size_leaf_vector":"1"}},{"base_weights":[-1.59045E-4,1.2505794E-1,-2.3931316E-1,9.4569874E-1,4.9308818E-2,-4.7836682E-1,2.908131E-1,-5.214973E-2,1.1427708E0,8.892652E-3,1.2093452E0,-5.94563E-1,1.2930296E-1,4.558275E-1,-6.060469E-2,1.2517376E0,-1.4041501E-2,-6.43928E-2,5.7115704E-1,6.881784E-2,8.433996E-3,-9.9457794E-1,-3.3517224E-1,-6.117195E-1,5.308612E-1,6.826141E-1,-6.765364E-1,1.8986657E-1,1.4596242E0,-1.00374416E-1,9.2279285E-1,-3.8941603E-2,9.000777E-1,9.87209E-2,-1.1877118E0,-8.496297E-1,-1.1507094E-1,8.0823414E-2,-5.627647E-2,-2.4579987E-2,8.596948E-1,-1.3054125E-1,9.374336E-1,-6.329028E-2,2.7974254E-1,3.550666E-2,-2.9373763E-2,3.982881E-2,7.994044E-2,-4.210739E-2,-2.6017623E-3,-4.560458E-3,6.629736E-2,-2.3867212E-2,5.939529E-2,5.7622906E-2,-4.2208817E-2,3.1088373E-2,-2.747464E-2,5.4487903E-3,-6.359291E-2,9.952012E-3,-5.2951247E-2,1.6577069E-2,-1.857216E-2,-2.7885193E-2,3.3996973E-2,1.5040818E-2,6.1920863E-2,-5.576765E-2,3.6997065E-2,2.087944E-3,5.7184458E-2,5.092911E-2,-2.9180089E-2],"categories":[],"categories_nodes":[],"categories_segments":[],"categories_sizes":[],"default_left":[0,0,0,0,0,0,0,0,0,0,0,0,0,0,0,0,0,0,0,0,0,0,0,0,0,0,0,0,0,0,0,0,0,0,0,0,0,0,0,0,0,0,0,0,0,0,0,0,0,0,0,0,0,0,0,0,0,0,0,0,0,0,0,0,0,0,0,0,0,0,0,0,0,0,0],"id":7,"left_children":[1,3,5,7,9,11,13,-1,15,17,19,21,23,25,-1,27,-1,29,31,-1,-1,33,35,37,39,41,43,45,47,49,51,53,55,57,59,61,63,65,-1,-1,67,69,71,-1,73,-1,-1,-1,-1,-1,-1,-1,-1,-1,-1,-1,-1,-1,-1,-1,-1,-1,-1,-1,-1,-1,-1,-1,-1,-1,-1,-1,-1,-1,-1],"loss_changes":[1.1621014E1,1.5786577E1,1.7039484E1,9.6058655E0,1.0971252E1,6.5933895E0,1.0985554E1,0E0,3.4556313E0,9.405244E0,1.1371851E0,7.7240677E0,4.9774294E0,1.0383015E1,0E0,3.8664913E0,0E0,7.269191E0,5.3163977E0,0E0,0E0,6.4599915E0,5.4071174E0,2.2116942E0,4.01214E0,6.8948946E0,4.269641E0,2.1249554E0,1.6130066E-1,6.9782376E0,3.0656095E0,6.0409E0,8.518519E0,2.183692E0,2.9324722E0,3.375122E0,4.1541142E0,1.7072033E0,0E0,0E0,1.4142761E0,8.263198E0,4.5722275E0,0E0,2.8067575E0,0E0,0E0,0E0,0E0,0E0,0E0,0E0,0E0,0E0,0E0,0E0,0E0,0E0,0E0,0E0,0E0,0E0,0E0,0E0,0E0,0E0,0E0,0E0,0E0,0E0,0E0,0E0,0E0,0E0,0E0],"parents":[2147483647,0,0,1,1,2,2,3,3,4,4,5,5,6,6,8,8,9,9,10,10,11,11,12,12,13,13,15,15,17,17,18,18,21,21,22,22,23,23,24,24,25,25,26,26,27,27,28,28,29,29,30,30,31,31,32,32,33,33,34,34,35,35,36,36,37,37,40,40,41,41,42,42,44,44],"right_children":[2,4,6,8,10,12,14,-1,16,18,20,22,24,26,-1,28,-1,30,32,-1,-1,34,36,38,40,42,44,46,48,50,52,54,56,58,60,62,64,66,-1,-1,68,70,72,-1,74,-1,-1,-1,-1,-1,-1,-1,-1,-1,-1,-1,-1,-1,-1,-1,-1,-1,-1,-1,-1,-1,-1,-1,-1,-1,-1,-1,-1,-1,-1],"split_conditions":[3.096662E1,-4.2129204E1,2.849694E1,1.4942092E1,3.0481344E1,7.308644E0,5.12643E1,-5.214973E-2,4.258118E1,3.1914833E1,1.6411694E1,1.9935358E1,2.77119E1,2.2225264E1,-6.060469E-2,2.400853E1,-1.4041501E-2,2.3159908E1,-3.5115883E1,6.881784E-2,8.433996E-3,2.8613365E1,-4.6212807E1,2.6734034E1,-5.444678E1,2.5434229E1,-6.138179E1,6.235527E1,-6.507489E1,4.429617E0,4.995196E0,2.6227688E1,2.7123184E1,5.4269726E1,7.0613494E0,3.878775E0,-2.5505724E1,3.5541676E1,-5.627647E-2,-2.4579987E-2,-4.846489E1,2.2605995E1,-7.0214645E1,-6.329028E-2,-3.9626953E1,3.550666E-2,-2.9373763E-2,3.982881E-2,7.994044E-2,-4.210739E-2,-2.6017623E-3,-4.560458E-3,6.629736E-2,-2.3867212E-2,5.939529E-2,5.7622906E-2,-4.2208817E-2,3.1088373E-2,-2.747464E-2,5.4487903E-3,-6.359291E-2,9.952012E-3,-5.2951247E-2,1.6577069E-2,-1.857216E-2,-2.7885193E-2,3.3996973E-2,1.5040818E-2,6.1920863E-2,-5.576765E-2,3.6997065E-2,2.087944E-3,5.7184458E-2,5.092911E-2,-2.9180089E-2],"split_indices":[23,5,9,17,10,0,5,0,12,19,15,8,22,17,0,9,0,8,5,0,0,2,5,22,26,22,25,25,27,14,14,17,9,4,0,14,19,24,0,0,5,19,27,0,12,0,0,0,0,0,0,0,0,0,0,0,0,0,0,0,0,0,0,0,0,0,0,0,0,0,0,0,0,0,0],"split_type":[0,0,0,0,0,0,0,0,0,0,0,0,0,0,0,0,0,0,0,0,0,0,0,0,0,0,0,0,0,0,0,0,0,0,0,0,0,0,0,0,0,0,0,0,0,0,0,0,0,0,0,0,0,0,0,0,0,0,0,0,0,0,0,0,0,0,0,0,0,0,0,0,0,0,0],"sum_hessian":[3.8606424E2,2.5370549E2,1.3235875E2,2.046879E1,2.332367E2,9.129022E1,4.1068523E1,1.4584843E0,1.9010305E1,2.2635796E2,6.8787427E0,7.6654274E1,1.4635951E1,3.7633217E1,3.435305E0,1.7770798E1,1.239508E0,2.0103992E2,2.5318037E1,5.6495056E0,1.2292373E0,2.90386E1,4.761567E1,4.9598475E0,9.676104E0,3.1684679E1,5.9485393E0,3.2227113E0,1.4548086E1,1.948367E2,6.2032185E0,9.177239E0,1.6140797E1,4.432996E0,2.4605606E1,1.3410421E1,3.4205246E1,2.4714205E0,2.4884267E0,2.2341995E0,7.4419045E0,7.6763525E0,2.4008326E1,3.480277E0,2.468262E0,1.9823831E0,1.2403282E0,3.6904895E0,1.0857596E1,1.0915452E1,1.8392125E2,1.9848198E0,4.2183986E0,7.2112746E0,1.9659647E0,1.4396951E1,1.7438464E0,2.4759438E0,1.957052E0,1.481455E0,2.3124151E1,2.2402916E0,1.117013E1,1.2367422E1,2.1837826E1,1.2298211E0,1.2415993E0,3.7307508E0,3.7111535E0,3.469671E0,4.2066817E0,4.71887E0,1.9289455E1,1.2331431E0,1.235119E0],"tree_param":{"num_deleted":"0","num_feature":"28","num_nodes":"75","size_leaf_vector":"1"}},{"base_weights":[-3.8715182E-3,1.0539348E-1,-2.8540087E-1,9.178583E-1,3.906353E-2,-5.3550655E-1,3.1992894E-1,1.1016461E0,-3.362224E-1,-5.502342E-1,1.0436246E-1,-9.517411E-1,-9.036463E-2,-7.39303E-1,5.704918E-1,1.2394857E0,2.6449773E-3,-5.5049945E-2,2.9334128E-2,-7.7528423E-1,3.9494458E-1,1.8046115E-1,-3.6334524E-1,1.7864044E-1,-1.081675E0,-3.4072846E-1,8.135738E-1,-1.0812473E0,7.4745803E-3,7.8021884E-1,-5.3869694E-2,2.8692046E-1,1.3882698E0,1.855652E-1,-9.250823E-1,9.84803E-1,-3.7932243E-2,-8.136792E-2,3.330169E-1,-4.707105E-1,5.7578485E-2,-2.421501E-2,4.4848274E-2,-1.3250375E0,-6.805537E-1,1.1738966E-2,-1.009858E0,-1.3934254E-2,1.0744919E0,-7.55961E-3,-6.751304E-2,2.9434437E-1,1.2540654E0,-3.3137053E-2,5.5207472E-2,7.7378996E-2,3.2197323E-2,3.6408674E-2,-1.884069E-2,-5.374947E-2,-1.4427232E-2,6.2368896E-2,9.589905E-3,-2.7215166E-2,2.408381E-2,1.0893909E-2,3.9795842E-2,-4.7687482E-2,-7.674034E-3,-7.193062E-2,-4.423373E-4,4.501433E-3,-5.106364E-2,-2.4404924E-2,3.7712734E-2,-6.512647E-2,-5.7923677E-3,7.012071E-2,-1.3659844E-2,-4.535736E-2,2.7626801E-2,-1.4257584E-3,7.184269E-2],"categories":[],"categories_nodes":[],"categories_segments":[],"categories_sizes":[],"default_left":[0,0,0,0,0,0,0,0,0,0,0,0,0,0,0,0,0,0,0,0,0,0,0,0,0,0,0,0,0,0,0,0,0,0,0,0,0,0,0,0,0,0,0,0,0,0,0,0,0,0,0,0,0,0,0,0,0,0,0,0,0,0,0,0,0,0,0,0,0,0,0,0,0,0,0,0,0,0,0,0,0,0,0],"id":8,"left_children":[1,3,5,7,9,11,13,15,17,19,21,23,25,27,29,31,-1,-1,-1,33,35,37,39,41,43,45,47,49,-1,51,-1,53,55,57,59,61,-1,63,65,67,-1,-1,-1,69,71,73,75,-1,77,-1,-1,79,81,-1,-1,-1,-1,-1,-1,-1,-1,-1,-1,-1,-1,-1,-1,-1,-1,-1,-1,-1,-1,-1,-1,-1,-1,-1,-1,-1,-1,-1,-1],"loss_changes":[1.20009365E1,1.5111614E1,1.6685013E1,5.249941E0,1.0097242E1,1.4284405E1,9.051848E0,2.6374779E0,3.0966778E0,5.8762875E0,8.45532E0,6.0647125E0,9.009066E0,2.1845145E0,1.012385E1,1.9375973E0,0E0,0E0,0E0,3.2644463E0,4.6246266E0,8.151713E0,5.9611845E0,2.8057404E0,2.6121292E0,7.3040648E0,2.7685113E0,1.0288687E0,0E0,5.250355E0,0E0,3.4380696E0,6.6292E-1,1.4129223E0,1.4795971E0,6.364622E-1,0E0,1.9990044E1,6.6868725E0,4.729951E0,0E0,0E0,0E0,3.1784859E0,4.200492E0,8.251166E0,2.643321E0,0E0,3.5646925E0,0E0,0E0,4.6450267E0,2.8660622E0,0E0,0E0,0E0,0E0,0E0,0E0,0E0,0E0,0E0,0E0,0E0,0E0,0E0,0E0,0E0,0E0,0E0,0E0,0E0,0E0,0E0,0E0,0E0,0E0,0E0,0E0,0E0,0E0,0E0,0E0],"parents":[2147483647,0,0,1,1,2,2,3,3,4,4,5,5,6,6,7,7,8,8,9,9,10,10,11,11,12,12,13,13,14,14,15,15,19,19,20,20,21,21,22,22,23,23,24,24,25,25,26,26,27,27,29,29,31,31,32,32,33,33,34,34,35,35,37,37,38,38,39,39,43,43,44,44,45,45,46,46,48,48,51,51,52,52],"right_children":[2,4,6,8,10,12,14,16,18,20,22,24,26,28,30,32,-1,-1,-1,34,36,38,40,42,44,46,48,50,-1,52,-1,54,56,58,60,62,-1,64,66,68,-1,-1,-1,70,72,74,76,-1,78,-1,-1,80,82,-1,-1,-1,-1,-1,-1,-1,-1,-1,-1,-1,-1,-1,-1,-1,-1,-1,-1,-1,-1,-1,-1,-1,-1,-1,-1,-1,-1,-1,-1],"split_conditions":[2.4839418E1,-3.97219E1,2.8616594E1,2.9401077E1,4.405243E0,7.275959E0,3.929825E0,2.4171568E1,5.127445E1,3.4895817E1,6.504596E0,2.9994595E1,4.239902E0,5.3195736E1,4.6894565E0,1.952586E1,2.6449773E-3,-5.5049945E-2,2.9334128E-2,-3.7293297E1,5.184263E1,6.202866E0,2.4478056E1,-3.6302715E1,6.286001E0,2.8543232E1,6.2173347E0,-7.238427E1,7.4745803E-3,-3.3158573E1,-5.3869694E-2,6.546628E0,6.083846E1,6.291366E0,2.3908287E1,1.688676E1,-3.7932243E-2,6.2159348E0,2.215948E1,2.6676685E1,5.7578485E-2,-2.421501E-2,4.4848274E-2,3.5348038E1,-3.763953E1,1.368558E1,2.8202278E1,-1.3934254E-2,6.354391E0,-7.55961E-3,-6.751304E-2,1.8192617E1,-7.208149E1,-3.3137053E-2,5.5207472E-2,7.7378996E-2,3.2197323E-2,3.6408674E-2,-1.884069E-2,-5.374947E-2,-1.4427232E-2,6.2368896E-2,9.589905E-3,-2.7215166E-2,2.408381E-2,1.0893909E-2,3.9795842E-2,-4.7687482E-2,-7.674034E-3,-7.193062E-2,-4.423373E-4,4.501433E-3,-5.106364E-2,-2.4404924E-2,3.7712734E-2,-6.512647E-2,-5.7923677E-3,7.012071E-2,-1.3659844E-2,-4.535736E-2,2.7626801E-2,-1.4257584E-3,7.184269E-2],"split_indices":[22,12,9,9,14,0,14,22,6,20,7,23,14,11,14,1,0,0,0,12,11,7,16,5,7,10,7,25,0,18,0,7,25,7,22,16,0,14,1,23,0,0,0,23,18,19,1,0,7,0,0,17,25,0,0,0,0,0,0,0,0,0,0,0,0,0,0,0,0,0,0,0,0,0,0,0,0,0,0,0,0,0,0],"split_type":[0,0,0,0,0,0,0,0,0,0,0,0,0,0,0,0,0,0,0,0,0,0,0,0,0,0,0,0,0,0,0,0,0,0,0,0,0,0,0,0,0,0,0,0,0,0,0,0,0,0,0,0,0,0,0,0,0,0,0,0,0,0,0,0,0,0,0,0,0,0,0,0,0,0,0,0,0,0,0,0,0,0,0],"sum_hessian":[3.8815314E2,2.8007733E2,1.0807581E2,2.0170792E1,2.5990652E2,7.655906E1,3.1516754E1,1.7698584E1,2.4722085E0,2.5186018E1,2.347205E2,3.897604E1,3.7583015E1,5.655991E0,2.5860764E1,1.5481884E1,2.2166998E0,1.2463961E0,1.2258124E0,2.0487604E1,4.698413E0,2.0240262E2,3.231789E1,3.9796424E0,3.49964E1,2.9919323E1,7.663693E0,3.9281776E0,1.7278132E0,2.3408134E1,2.4526293E0,2.4870965E0,1.2994787E1,2.7310536E0,1.7756552E1,3.205617E0,1.4927961E0,7.46863E1,1.2771632E2,3.0822704E1,1.4951881E0,2.2390344E0,1.740608E0,2.0347897E1,1.4648501E1,2.0240168E1,9.679156E0,1.4645752E0,6.199118E0,1.2317381E0,2.6964395E0,1.2357814E1,1.1050321E1,1.2377765E0,1.24932E0,9.814894E0,3.1798933E0,1.2399173E0,1.4911364E0,1.3814402E1,3.9421494E0,1.9777731E0,1.227844E0,4.100513E1,3.3681175E1,1.0345442E2,2.4261898E1,1.1422861E1,1.9399843E1,1.8645918E1,1.7019798E0,4.7167354E0,9.931766E0,1.2301703E1,7.9384637E0,6.9477334E0,2.731423E0,4.953272E0,1.2458463E0,1.7412877E0,1.0616527E1,1.4836837E0,9.566637E0],"tree_param":{"num_deleted":"0","num_feature":"28","num_nodes":"83","size_leaf_vector":"1"}},{"base_weights":[1.0535776E-2,-2.9812198E-2,6.5423566E-1,6.685714E-2,-2.9299256E-1,1.1379399E0,2.7105348E-2,-5.0065273E-1,1.3364106E-1,-8.695871E-1,-1.419306E-1,1.3043125E0,-1.0773496E-2,-5.246893E-1,7.9970825E-1,-8.68975E-1,-8.266024E-2,5.412973E-1,-7.081712E-2,3.81378E-2,-1.119472E0,3.5726082E-1,-3.4183413E-1,4.261482E-3,7.214519E-2,2.246437E-2,-9.3266225E-1,-1.4038861E-2,6.2080927E-2,1.7535565E-2,-1.0063483E0,-7.399357E-1,7.0208174E-1,6.042348E-1,-6.299149E-2,-6.5739614E-1,6.0465027E-2,3.096232E-1,-1.3967714E0,8.3599573E-1,-4.4890913E-1,-5.086373E-1,2.2876598E-1,5.424375E-3,-6.417332E-2,-5.7825476E-2,-1.4866284E-2,1.915857E-2,-5.2301418E-2,4.6908133E-2,-1.0570641E-2,9.675547E-3,4.0399265E-2,-5.4769475E-2,8.523915E-3,-5.613531E-3,2.1349108E-2,-2.8853735E-2,5.653246E-2,-7.55133E-2,-1.0409026E-2,-2.7890159E-2,6.5829344E-2,-5.916219E-2,2.9562606E-2,-5.5781186E-2,-9.222797E-3,3.552603E-2,-3.6774192E-2],"categories":[],"categories_nodes":[],"categories_segments":[],"categories_sizes":[],"default_left":[0,0,0,0,0,0,0,0,0,0,0,0,0,0,0,0,0,0,0,0,0,0,0,0,0,0,0,0,0,0,0,0,0,0,0,0,0,0,0,0,0,0,0,0,0,0,0,0,0,0,0,0,0,0,0,0,0,0,0,0,0,0,0,0,0,0,0,0,0],"id":9,"left_children":[1,3,5,7,9,11,13,15,17,19,21,23,-1,25,27,29,31,33,35,-1,37,39,41,-1,-1,-1,43,-1,-1,-1,45,47,49,51,-1,53,55,57,59,61,63,65,67,-1,-1,-1,-1,-1,-1,-1,-1,-1,-1,-1,-1,-1,-1,-1,-1,-1,-1,-1,-1,-1,-1,-1,-1,-1,-1],"loss_changes":[9.8798485E0,9.13313E0,6.7753506E0,1.0027159E1,8.274579E0,3.1277847E0,5.0214715E0,4.2205424E0,1.9701885E1,8.93884E0,7.8653603E0,1.8031673E0,0E0,3.161149E0,2.685181E0,2.8185902E0,7.825582E0,9.707172E0,1.2207057E1,0E0,7.405077E0,9.1272955E0,5.438536E0,0E0,0E0,0E0,2.0343804E0,0E0,0E0,0E0,1.0918036E0,3.218153E0,1.7013681E0,6.281435E0,0E0,1.0694828E1,8.279728E0,3.3299267E0,1.697876E0,1.0498961E1,7.6502037E0,8.369521E0,6.7188063E0,0E0,0E0,0E0,0E0,0E0,0E0,0E0,0E0,0E0,0E0,0E0,0E0,0E0,0E0,0E0,0E0,0E0,0E0,0E0,0E0,0E0,0E0,0E0,0E0,0E0,0E0],"parents":[2147483647,0,0,1,1,2,2,3,3,4,4,5,5,6,6,7,7,8,8,9,9,10,10,11,11,13,13,14,14,15,15,16,16,17,17,18,18,20,20,21,21,22,22,26,26,30,30,31,31,32,32,33,33,35,35,36,36,37,37,38,38,39,39,40,40,41,41,42,42],"right_children":[2,4,6,8,10,12,14,16,18,20,22,24,-1,26,28,30,32,34,36,-1,38,40,42,-1,-1,-1,44,-1,-1,-1,46,48,50,52,-1,54,56,58,60,62,64,66,68,-1,-1,-1,-1,-1,-1,-1,-1,-1,-1,-1,-1,-1,-1,-1,-1,-1,-1,-1,-1,-1,-1,-1,-1,-1,-1],"split_conditions":[5.951832E1,3.1645477E1,5.7976814E1,1.6919535E1,3.1030796E1,4.893503E1,5.9915745E1,4.405243E0,5.2327456E0,2.0414835E1,-3.763953E1,2.7385975E1,-1.0773496E-2,-7.175349E1,2.8188696E1,1.320677E1,7.249542E0,6.554564E0,-3.981179E1,3.81378E-2,1.2758972E1,6.625556E1,7.312698E0,4.261482E-3,7.214519E-2,2.246437E-2,-4.3140957E1,-1.4038861E-2,6.2080927E-2,1.7535565E-2,6.324649E1,7.1802316E0,3.38419E1,2.1472242E1,-6.299149E-2,5.8886227E1,6.2159348E0,1.2180913E1,6.1658585E1,-6.774471E1,7.2854686E0,3.1964808E1,2.551053E1,5.424375E-3,-6.417332E-2,-5.7825476E-2,-1.4866284E-2,1.915857E-2,-5.2301418E-2,4.6908133E-2,-1.0570641E-2,9.675547E-3,4.0399265E-2,-5.4769475E-2,8.523915E-3,-5.613531E-3,2.1349108E-2,-2.8853735E-2,5.653246E-2,-7.55133E-2,-1.0409026E-2,-2.7890159E-2,6.5829344E-2,-5.916219E-2,2.9562606E-2,-5.5781186E-2,-9.222797E-3,3.552603E-2,-3.6774192E-2],"split_indices":[11,23,6,17,2,5,4,14,14,1,18,2,0,25,9,17,0,7,26,0,15,27,0,0,0,0,12,0,0,0,25,0,18,1,0,27,14,15,4,4,0,18,9,0,0,0,0,0,0,0,0,0,0,0,0,0,0,0,0,0,0,0,0,0,0,0,0,0,0],"split_type":[0,0,0,0,0,0,0,0,0,0,0,0,0,0,0,0,0,0,0,0,0,0,0,0,0,0,0,0,0,0,0,0,0,0,0,0,0,0,0,0,0,0,0,0,0,0,0,0,0,0,0,0,0,0,0,0,0,0,0,0,0,0,0,0,0,0,0,0,0],"sum_hessian":[3.7865308E2,3.57216E2,2.1437092E1,2.6179974E2,9.5416245E1,1.1642634E1,9.794457E0,2.688052E1,2.3491922E2,1.8821026E1,7.6595215E1,1.0400405E1,1.242229E0,5.9009013E0,3.8935556E0,1.3715719E1,1.3164801E1,7.791732E1,1.570019E2,2.2262018E0,1.6594824E1,2.1677025E1,5.4918194E1,1.2265272E0,9.173878E0,1.7121415E0,4.18876E0,1.2360356E0,2.65752E0,1.2312176E0,1.2484502E1,7.1953206E0,5.96948E0,7.592864E1,1.9886799E0,2.7979551E1,1.2902235E2,2.6778166E0,1.3917008E1,1.35773E1,8.099724E0,4.2579536E1,1.2338657E1,1.2297469E0,2.959013E0,9.7817335E0,2.7027686E0,1.4870952E0,5.7082253E0,4.722108E0,1.2473723E0,2.5823298E1,5.0105343E1,1.8087229E1,9.892323E0,8.816487E1,4.0857487E1,1.4302711E0,1.2475455E0,1.2456904E1,1.4601035E0,3.4400084E0,1.0137292E1,4.6672053E0,3.4325185E0,1.3973906E1,2.860563E1,8.403347E0,3.9353096E0],"tree_param":{"num_deleted":"0","num_feature":"28","num_nodes":"69","size_leaf_vector":"1"}},{"base_weights":[-8.425385E-3,9.999703E-2,-2.9041743E-1,5.4035448E-2,8.735958E-1,-3.601831E-2,-9.554198E-1,-1.0234872E0,8.416889E-2,1.0783563E0,-1.831893E-2,-2.4788675E-1,3.5769397E-1,5.3388315E-1,-1.1099508E0,-6.4164005E-2,-5.3817616E-3,2.9800045E-1,-5.0883055E-2,1.2438364E0,-1.708853E-2,-5.930678E-1,1.1766148E-1,5.413923E-1,-6.242571E-2,5.239919E-2,-1.0822437E-2,-1.2921492E0,6.673692E-2,1.3752045E-1,7.287156E-1,-1.9045366E-1,3.4708312E-1,8.881058E-3,1.3458391E0,8.392547E-2,-8.612995E-1,-9.486813E-2,5.88602E-2,-3.8742432E-1,7.783863E-1,-5.0585675E-1,-7.734166E-2,5.258435E-2,-5.2750107E-2,-2.7922079E-2,1.2891113E-2,4.5825977E-2,-4.0931452E-2,-4.3011367E-2,-4.0307883E-3,3.667893E-2,-5.539901E-3,2.0164777E-2,7.47086E-2,6.857054E-2,-2.562343E-2,3.344565E-2,-4.9989916E-2,-2.2082066E-2,2.6054455E-2,-5.8529478E-2,6.781127E-3,4.654587E-2,-3.737051E-2,1.6021868E-2,-3.8539182E-2],"categories":[],"categories_nodes":[],"categories_segments":[],"categories_sizes":[],"default_left":[0,0,0,0,0,0,0,0,0,0,0,0,0,0,0,0,0,0,0,0,0,0,0,0,0,0,0,0,0,0,0,0,0,0,0,0,0,0,0,0,0,0,0,0,0,0,0,0,0,0,0,0,0,0,0,0,0,0,0,0,0,0,0,0,0,0,0],"id":10,"left_children":[1,3,5,7,9,11,13,15,17,19,-1,21,23,25,27,-1,-1,29,31,33,-1,35,37,39,-1,-1,-1,41,43,45,47,49,51,-1,53,55,57,59,-1,61,63,65,-1,-1,-1,-1,-1,-1,-1,-1,-1,-1,-1,-1,-1,-1,-1,-1,-1,-1,-1,-1,-1,-1,-1,-1,-1],"loss_changes":[1.1919227E1,9.966687E0,1.8280018E1,8.752572E0,4.3885384E0,6.706925E0,7.4774475E0,1.6076269E0,7.5400825E0,3.6570969E0,0E0,6.6530514E0,8.987014E0,1.572114E0,5.9665527E0,0E0,0E0,6.881921E0,8.984305E0,1.1240253E0,0E0,4.9752207E0,6.0055695E0,6.019131E0,0E0,0E0,0E0,3.9835434E0,6.2232747E0,6.408788E0,8.650868E0,8.723064E0,7.5216646E0,0E0,9.754219E-1,7.285656E0,4.785939E0,5.0843797E0,0E0,2.5952144E0,5.5892773E0,1.8469249E0,0E0,0E0,0E0,0E0,0E0,0E0,0E0,0E0,0E0,0E0,0E0,0E0,0E0,0E0,0E0,0E0,0E0,0E0,0E0,0E0,0E0,0E0,0E0,0E0,0E0],"parents":[2147483647,0,0,1,1,2,2,3,3,4,4,5,5,6,6,7,7,8,8,9,9,11,11,12,12,13,13,14,14,17,17,18,18,19,19,21,21,22,22,23,23,27,27,28,28,29,29,30,30,31,31,32,32,34,34,35,35,36,36,37,37,39,39,40,40,41,41],"right_children":[2,4,6,8,10,12,14,16,18,20,-1,22,24,26,28,-1,-1,30,32,34,-1,36,38,40,-1,-1,-1,42,44,46,48,50,52,-1,54,56,58,60,-1,62,64,66,-1,-1,-1,-1,-1,-1,-1,-1,-1,-1,-1,-1,-1,-1,-1,-1,-1,-1,-1,-1,-1,-1,-1,-1,-1],"split_conditions":[2.4881731E1,3.0047966E1,4.5441694E0,1.5377664E1,4.3403217E1,2.8616594E1,2.958394E1,2.3778963E1,5.2327456E0,4.2608192E1,-1.831893E-2,7.313749E0,5.12643E1,3.5165813E1,2.290841E1,-6.4164005E-2,-5.3817616E-3,3.672048E1,6.26117E0,2.7485939E1,-1.708853E-2,7.2898173E0,4.239902E0,-7.0214645E1,-6.242571E-2,5.239919E-2,-1.0822437E-2,-4.2922237E1,-6.3571766E1,2.400853E1,1.6423162E1,2.0672964E1,1.5417043E1,8.881058E-3,2.9049873E1,-2.4260397E1,3.0648174E1,4.4675953E1,5.88602E-2,3.929825E0,4.371401E1,-3.6665558E1,-7.734166E-2,5.258435E-2,-5.2750107E-2,-2.7922079E-2,1.2891113E-2,4.5825977E-2,-4.0931452E-2,-4.3011367E-2,-4.0307883E-3,3.667893E-2,-5.539901E-3,2.0164777E-2,7.47086E-2,6.857054E-2,-2.562343E-2,3.344565E-2,-4.9989916E-2,-2.2082066E-2,2.6054455E-2,-5.8529478E-2,6.781127E-3,4.654587E-2,-3.737051E-2,1.6021868E-2,-3.8539182E-2],"split_indices":[22,10,14,16,12,9,23,22,14,18,0,21,5,20,16,0,0,20,14,23,0,21,14,27,0,0,0,5,25,9,15,9,8,0,24,19,2,5,0,14,20,12,0,0,0,0,0,0,0,0,0,0,0,0,0,0,0,0,0,0,0,0,0,0,0,0,0],"split_type":[0,0,0,0,0,0,0,0,0,0,0,0,0,0,0,0,0,0,0,0,0,0,0,0,0,0,0,0,0,0,0,0,0,0,0,0,0,0,0,0,0,0,0,0,0,0,0,0,0,0,0,0,0,0,0,0,0,0,0,0,0,0,0,0,0,0,0],"sum_hessian":[3.8789532E2,2.8063864E2,1.0725666E2,2.6591006E2,1.4728583E1,7.834113E1,2.891553E1,6.337194E0,2.5957288E2,1.2752986E1,1.9755969E0,5.117351E1,2.7167622E1,2.4874737E0,2.6428055E1,4.6242733E0,1.7129203E0,1.0001296E2,1.595599E2,1.1533216E1,1.2197697E0,2.5999866E1,2.5173643E1,2.4974304E1,2.1933167E0,1.2406981E0,1.2467756E0,2.2799635E1,3.6284204E0,7.38256E1,2.6187368E1,1.18516464E2,4.1043446E1,1.2463808E0,1.0286836E1,7.5731115E0,1.8426754E1,2.1726143E1,3.4475014E0,4.9479127E0,2.0026392E1,6.308734E0,1.6490902E1,1.9652603E0,1.66316E0,1.034373E1,6.3481865E1,2.3716534E1,2.4708347E0,1.5735029E1,1.0278144E2,2.193017E1,1.9113276E1,1.9044356E0,8.3824E0,1.9860837E0,5.587028E0,1.2115157E0,1.7215239E1,1.4081502E1,7.6446404E0,1.4855531E0,3.4623594E0,1.8560785E1,1.4656063E0,1.480766E0,4.8279676E0],"tree_param":{"num_deleted":"0","num_feature":"28","num_nodes":"67","size_leaf_vector":"1"}},{"base_weights":[-2.1050451E-2,1.9890648E-1,-1.284533E-1,1.02869935E-1,9.39713E-1,-3.41816E-1,1.5105166E-1,3.3441797E-1,-2.8957003E-1,7.780223E-2,1.8260664E-1,6.4410496E-1,-4.0512383E-1,2.4562824E-1,-6.2759835E-1,4.733159E-1,-4.168369E-1,1.546341E-1,-5.7357836E-1,8.012473E-1,-2.668726E-1,5.284536E-2,6.84106E-2,-4.3845707E-1,8.664469E-1,4.4203863E-1,-1.6375603E-1,2.3411E-1,-1.2978123E0,1.462874E-1,7.5256747E-1,-7.1134126E-1,4.164849E-2,-7.297447E-1,9.119326E-1,-7.8699297E-1,2.1259764E-1,5.3738978E-2,8.504114E-3,2.5032759E-2,-7.940157E-1,8.108022E-1,-6.6903764E-1,-6.204754E-1,-2.0576577E-1,5.6320317E-2,8.147858E-3,1.8099284E-1,7.797499E-1,4.8888278E-1,-4.0751314E-1,-4.5706917E-2,8.545552E-1,-7.3620066E-2,-1.1828668E-2,3.0339187E-2,-1.7551431E-2,4.212463E-2,-2.7668847E-2,-5.7677865E-2,2.3713784E-2,1.865292E-2,-5.043159E-2,-8.878334E-3,6.259776E-2,-4.7579836E-2,2.0755498E-2,-3.3755913E-2,4.19123E-2,-9.53611E-3,-5.2025896E-2,5.3052425E-2,9.899673E-3,-1.941251E-3,-5.349329E-2,-4.6741278E-4,-3.5329957E-2,-2.8183002E-2,5.7274005E-3,-3.139868E-2,1.6842416E-2,4.4138208E-2,-2.8938944E-2,4.633777E-2,-3.4259804E-2,5.651896E-2,-2.75425E-2,1.033606E-3,6.1577957E-2],"categories":[],"categories_nodes":[],"categories_segments":[],"categories_sizes":[],"default_left":[0,0,0,0,0,0,0,0,0,0,0,0,0,0,0,0,0,0,0,0,0,0,0,0,0,0,0,0,0,0,0,0,0,0,0,0,0,0,0,0,0,0,0,0,0,0,0,0,0,0,0,0,0,0,0,0,0,0,0,0,0,0,0,0,0,0,0,0,0,0,0,0,0,0,0,0,0,0,0,0,0,0,0,0,0,0,0,0,0],"id":11,"left_children":[1,3,5,7,9,11,13,15,17,-1,19,21,23,25,27,29,31,33,35,37,39,41,-1,43,45,47,49,51,53,55,57,59,-1,61,63,65,67,-1,-1,-1,69,71,73,75,77,-1,-1,79,81,83,85,-1,87,-1,-1,-1,-1,-1,-1,-1,-1,-1,-1,-1,-1,-1,-1,-1,-1,-1,-1,-1,-1,-1,-1,-1,-1,-1,-1,-1,-1,-1,-1,-1,-1,-1,-1,-1,-1],"loss_changes":[9.259722E0,9.05506E0,1.5750504E1,1.0546411E1,6.5470095E0,9.597996E0,8.597403E0,7.7925434E0,5.5397835E0,0E0,2.3556056E0,3.957373E0,6.363909E0,8.350605E0,7.6378493E0,5.542675E0,4.968706E0,1.2479203E1,4.6251364E0,4.1992068E-1,2.505992E0,3.9466186E0,0E0,5.727276E0,5.3742576E-1,6.0162134E0,5.625504E0,5.3428097E0,1.003478E0,7.026479E0,4.358885E0,5.8747406E0,0E0,3.0496998E0,3.9071722E0,4.5719347E0,4.1537294E0,0E0,0E0,0E0,3.1849718E-1,3.2466888E-1,9.018251E-1,4.0497017E0,7.1915965E0,0E0,0E0,5.342548E0,4.730133E0,5.637143E0,6.2171936E0,0E0,1.4438431E0,0E0,0E0,0E0,0E0,0E0,0E0,0E0,0E0,0E0,0E0,0E0,0E0,0E0,0E0,0E0,0E0,0E0,0E0,0E0,0E0,0E0,0E0,0E0,0E0,0E0,0E0,0E0,0E0,0E0,0E0,0E0,0E0,0E0,0E0,0E0,0E0],"parents":[2147483647,0,0,1,1,2,2,3,3,4,4,5,5,6,6,7,7,8,8,10,10,11,11,12,12,13,13,14,14,15,15,16,16,17,17,18,18,19,19,20,20,21,21,23,23,24,24,25,25,26,26,27,27,28,28,29,29,30,30,31,31,33,33,34,34,35,35,36,36,40,40,41,41,42,42,43,43,44,44,47,47,48,48,49,49,50,50,52,52],"right_children":[2,4,6,8,10,12,14,16,18,-1,20,22,24,26,28,30,32,34,36,38,40,42,-1,44,46,48,50,52,54,56,58,60,-1,62,64,66,68,-1,-1,-1,70,72,74,76,78,-1,-1,80,82,84,86,-1,88,-1,-1,-1,-1,-1,-1,-1,-1,-1,-1,-1,-1,-1,-1,-1,-1,-1,-1,-1,-1,-1,-1,-1,-1,-1,-1,-1,-1,-1,-1,-1,-1,-1,-1,-1,-1],"split_conditions":[2.7205872E1,2.1360785E1,2.6958534E1,1.9012028E1,1.5603151E1,1.9358309E1,7.036213E1,5.3425156E1,-5.2481197E1,7.780223E-2,-3.1685043E1,3.4709785E1,2.9231527E1,2.0165356E1,-3.9626953E1,6.98767E0,1.7496416E1,2.3810299E1,2.2983147E1,6.3609056E0,2.0845007E1,2.0362276E1,6.84106E-2,2.597041E1,7.3279176E0,-5.739064E1,-6.509067E1,-4.063443E1,3.0329664E1,1.9044521E1,3.6459557E1,2.310354E1,4.164849E-2,-5.5679356E1,-4.014915E1,5.9010345E1,2.3060799E1,5.3738978E-2,8.504114E-3,2.5032759E-2,3.7171177E1,3.1972176E1,-5.3004307E1,-4.3222397E1,-5.2776066E1,5.6320317E-2,8.147858E-3,2.229617E1,3.1366026E1,4.934605E1,1.9686054E1,-4.5706917E-2,2.8388699E1,-7.3620066E-2,-1.1828668E-2,3.0339187E-2,-1.7551431E-2,4.212463E-2,-2.7668847E-2,-5.7677865E-2,2.3713784E-2,1.865292E-2,-5.043159E-2,-8.878334E-3,6.259776E-2,-4.7579836E-2,2.0755498E-2,-3.3755913E-2,4.19123E-2,-9.53611E-3,-5.2025896E-2,5.3052425E-2,9.899673E-3,-1.941251E-3,-5.349329E-2,-4.6741278E-4,-3.5329957E-2,-2.8183002E-2,5.7274005E-3,-3.139868E-2,1.6842416E-2,4.4138208E-2,-2.8938944E-2,4.633777E-2,-3.4259804E-2,5.651896E-2,-2.75425E-2,1.033606E-3,6.1577957E-2],"split_indices":[2,1,9,8,15,1,25,6,25,0,19,5,1,16,12,21,8,19,16,14,16,17,0,10,21,25,6,18,10,22,12,17,0,13,18,25,2,0,0,0,5,12,27,18,27,0,0,22,10,26,8,0,9,0,0,0,0,0,0,0,0,0,0,0,0,0,0,0,0,0,0,0,0,0,0,0,0,0,0,0,0,0,0,0,0,0,0,0,0],"split_type":[0,0,0,0,0,0,0,0,0,0,0,0,0,0,0,0,0,0,0,0,0,0,0,0,0,0,0,0,0,0,0,0,0,0,0,0,0,0,0,0,0,0,0,0,0,0,0,0,0,0,0,0,0,0,0,0,0,0,0,0,0,0,0,0,0,0,0,0,0,0,0,0,0,0,0,0,0,0,0,0,0,0,0,0,0,0,0,0,0],"sum_hessian":[3.8988095E2,1.2763577E2,2.6224515E2,1.1399639E2,1.3639381E1,1.4859265E2,1.1365252E2,7.178786E1,4.2208534E1,6.936989E0,6.7023926E0,8.41216E0,1.4018048E2,1.0195355E2,1.1698962E1,6.089844E1,1.0889418E1,1.6639307E1,2.5569227E1,2.4911234E0,4.2112694E0,5.221553E0,3.1906073E0,1.3723808E2,2.942403E0,6.884433E1,3.3109226E1,5.4029574E0,6.2960043E0,2.8751604E1,3.2146835E1,9.161452E0,1.7279655E0,7.6924224E0,8.946884E0,2.010933E1,5.459898E0,1.2475945E0,1.243529E0,1.7351356E0,2.4761338E0,2.4870467E0,2.734506E0,7.606846E1,6.116962E1,1.7095181E0,1.2328849E0,3.969591E1,2.9148417E1,8.729942E0,2.4379286E1,1.7292686E0,3.6736891E0,5.073848E0,1.2221562E0,1.4814139E1,1.3937466E1,3.0407879E1,1.7389556E0,6.6923532E0,2.469099E0,1.4845202E0,6.2079024E0,2.2417274E0,6.7051563E0,1.787069E1,2.2386405E0,2.2245183E0,3.23538E0,1.2327633E0,1.2433704E0,1.2465535E0,1.2404932E0,1.4894855E0,1.2450205E0,9.532828E0,6.653563E1,2.8531256E1,3.2638367E1,5.9230695E0,3.3772842E1,2.7419462E1,1.7289529E0,6.51196E0,2.2179818E0,1.4914134E0,2.2887873E1,1.472203E0,2.201486E0],"tree_param":{"num_deleted":"0","num_feature":"28","num_nodes":"89","size_leaf_vector":"1"}},{"base_weights":[-1.7418407E-3,5.833015E-1,-4.014861E-2,1.2422934E0,2.2471167E-1,5.1931646E-2,-3.0392054E-1,5.9604603E-3,7.103159E-2,-5.812365E-1,6.9252753E-1,-1.2260498E0,9.015427E-2,-1.1726271E-1,-8.2262784E-1,-6.127624E-2,1.7189021E-1,6.1918404E-2,1.799101E-1,-4.3269875E-3,-7.0775814E-2,2.4489352E-2,6.894262E-1,-2.9374492E-1,3.4273556E-1,7.710075E-1,-1.1642857E0,-2.6295746E-2,4.781782E-2,-4.5101997E-1,4.7084387E-2,1.651625E-1,-1.6654874E-1,-9.4728224E-2,1.0186024E0,-4.304167E-1,6.8679494E-1,9.4995064E-1,-9.8711364E-2,6.5910086E-2,-7.84519E-3,-1.3488977E0,2.1203918E-2,2.8635165E-2,-5.117026E-2,1.9123683E-2,-7.308677E-3,-1.3694665E-2,2.5873879E-2,1.8954491E-2,-4.1398097E-2,1.5679454E-2,6.348701E-2,1.4558007E-3,-3.5059974E-2,-2.297121E-2,5.5327278E-2,-1.2190065E-2,7.0680484E-2,4.7968224E-2,-2.0966476E-2,-7.850277E-3,-7.1813874E-2],"categories":[],"categories_nodes":[],"categories_segments":[],"categories_sizes":[],"default_left":[0,0,0,0,0,0,0,0,0,0,0,0,0,0,0,0,0,0,0,0,0,0,0,0,0,0,0,0,0,0,0,0,0,0,0,0,0,0,0,0,0,0,0,0,0,0,0,0,0,0,0,0,0,0,0,0,0,0,0,0,0,0,0],"id":12,"left_children":[1,3,5,7,9,11,13,-1,-1,15,17,19,21,23,25,-1,27,-1,29,-1,-1,31,33,35,37,39,41,-1,-1,43,-1,45,47,49,51,53,55,57,59,-1,-1,61,-1,-1,-1,-1,-1,-1,-1,-1,-1,-1,-1,-1,-1,-1,-1,-1,-1,-1,-1,-1,-1],"loss_changes":[8.670112E0,5.3379974E0,8.809236E0,1.4641571E0,6.666871E0,1.3261214E1,8.988136E0,0E0,0E0,3.435398E0,2.8464007E0,1.580205E0,1.0306135E1,5.796833E0,1.4326319E1,0E0,2.6603296E0,0E0,3.7057784E0,0E0,0E0,6.4090343E0,6.773999E0,7.1635623E0,5.4325695E0,2.7230701E0,6.644165E0,0E0,0E0,3.1702921E0,0E0,9.342492E0,7.5725965E0,3.2890446E0,2.8429394E0,5.6938496E0,3.71011E0,5.0373845E0,4.621916E0,0E0,0E0,1.7314949E0,0E0,0E0,0E0,0E0,0E0,0E0,0E0,0E0,0E0,0E0,0E0,0E0,0E0,0E0,0E0,0E0,0E0,0E0,0E0,0E0,0E0],"parents":[2147483647,0,0,1,1,2,2,3,3,4,4,5,5,6,6,9,9,10,10,11,11,12,12,13,13,14,14,16,16,18,18,21,21,22,22,23,23,24,24,25,25,26,26,29,29,31,31,32,32,33,33,34,34,35,35,36,36,37,37,38,38,41,41],"right_children":[2,4,6,8,10,12,14,-1,-1,16,18,20,22,24,26,-1,28,-1,30,-1,-1,32,34,36,38,40,42,-1,-1,44,-1,46,48,50,52,54,56,58,60,-1,-1,62,-1,-1,-1,-1,-1,-1,-1,-1,-1,-1,-1,-1,-1,-1,-1,-1,-1,-1,-1,-1,-1],"split_conditions":[-4.1744167E1,2.4839418E1,3.1801525E1,7.057267E0,2.6997221E1,1.5377664E1,4.615677E0,5.9604603E-3,7.103159E-2,2.8351385E1,3.0841682E1,-4.629443E1,5.9915745E1,2.88413E1,2.9830288E1,-6.127624E-2,-3.7410538E1,6.1918404E-2,4.4902233E1,-4.3269875E-3,-7.0775814E-2,4.860776E1,-3.8767815E1,7.320889E0,-3.758159E1,5.5818905E1,2.3828285E1,-2.6295746E-2,4.781782E-2,-4.846489E1,4.7084387E-2,5.173812E1,3.8731823E1,5.1071334E0,-6.2165184E1,2.6562546E1,1.7362686E1,-5.8803753E1,2.9155823E1,6.5910086E-2,-7.84519E-3,1.2758972E1,2.1203918E-2,2.8635165E-2,-5.117026E-2,1.9123683E-2,-7.308677E-3,-1.3694665E-2,2.5873879E-2,1.8954491E-2,-4.1398097E-2,1.5679454E-2,6.348701E-2,1.4558007E-3,-3.5059974E-2,-2.297121E-2,5.5327278E-2,-1.2190065E-2,7.0680484E-2,4.7968224E-2,-2.0966476E-2,-7.850277E-3,-7.1813874E-2],"split_indices":[12,22,23,0,22,16,14,0,0,9,10,26,4,9,24,0,18,0,26,0,0,25,20,0,20,6,17,0,0,5,0,6,5,14,27,22,10,11,9,0,0,15,0,0,0,0,0,0,0,0,0,0,0,0,0,0,0,0,0,0,0,0,0],"split_type":[0,0,0,0,0,0,0,0,0,0,0,0,0,0,0,0,0,0,0,0,0,0,0,0,0,0,0,0,0,0,0,0,0,0,0,0,0,0,0,0,0,0,0,0,0,0,0,0,0,0,0,0,0,0,0,0,0,0,0,0,0,0,0],"sum_hessian":[3.83817E2,2.277051E1,3.6104648E2,7.1557584E0,1.5614751E1,2.6821747E2,9.2829025E1,1.209211E0,5.9465475E0,5.6457925E0,9.968958E0,6.8865814E0,2.6133087E2,6.916569E1,2.366334E1,2.7047079E0,2.9410849E0,4.142358E0,5.8266006E0,1.1894736E0,5.6971083E0,2.3646158E2,2.4869291E1,5.0248753E1,1.8916933E1,3.955688E0,1.9707651E1,1.7309468E0,1.2101381E0,3.4101422E0,2.4164581E0,1.3626021E2,1.0020137E2,7.5636353E0,1.7305656E1,4.459408E1,5.6546702E0,7.4784045E0,1.1438529E1,2.2237306E0,1.7319574E0,1.7790648E1,1.9170039E0,1.2227219E0,2.1874204E0,8.011313E1,5.6147087E1,8.712793E1,1.3073438E1,4.8879895E0,2.6756458E0,5.13604E0,1.2169617E1,1.6865282E1,2.7728802E1,1.4903722E0,4.164298E0,2.2247272E0,5.2536774E0,2.1967556E0,9.241774E0,1.406214E0,1.6384434E1],"tree_param":{"num_deleted":"0","num_feature":"28","num_nodes":"63","size_leaf_vector":"1"}},{"base_weights":[-2.4357947E-2,-7.5705744E-2,4.706798E-1,2.0847891E-1,-1.8269381E-1,6.338129E-1,-6.43512E-1,4.1781121E-1,-3.4739766E-1,-4.0084037E-1,-3.6394518E-2,7.610287E-1,-4.3626957E-2,2.450512E-2,-5.5607956E-2,1.5684994E-1,7.400267E-1,-1.0542697E0,2.6330715E-1,-5.8141756E-1,1.6768585E-1,1.2779097E-1,-5.1001126E-1,9.908802E-1,-8.5251875E-2,7.0258355E-1,-6.667954E-1,1.3519355E-2,1.0005229E0,-1.2220432E0,1.3212331E-2,-5.5482298E-2,4.945883E-1,1.1933716E-1,-8.4449613E-1,-8.128919E-1,4.0277663E-1,3.360785E-1,-2.3891269E-1,-8.4115803E-1,-4.8479035E-2,-1.3512872E-2,1.0719192E0,-6.940156E-1,4.632883E-2,5.9574433E-2,1.0951701E-2,2.175421E-2,-4.7180627E-2,3.0969206E-2,-4.6620674E-2,5.57415E-2,-1.9299773E-2,-7.112373E-2,3.1456952E-3,4.1797772E-2,-1.6261492E-2,-3.0507598E-2,2.7782971E-2,-4.9467336E-2,1.428441E-2,-5.9454646E-2,1.1394769E-2,4.1956147E-3,5.4239463E-2,5.699835E-3,4.921708E-2,-2.0169366E-2,1.9048184E-2,5.1389623E-4,-5.1615823E-2,7.731425E-3,-6.0427207E-2,3.0763496E-2,6.0010165E-2,2.37999E-2,-5.850504E-2],"categories":[],"categories_nodes":[],"categories_segments":[],"categories_sizes":[],"default_left":[0,0,0,0,0,0,0,0,0,0,0,0,0,0,0,0,0,0,0,0,0,0,0,0,0,0,0,0,0,0,0,0,0,0,0,0,0,0,0,0,0,0,0,0,0,0,0,0,0,0,0,0,0,0,0,0,0,0,0,0,0,0,0,0,0,0,0,0,0,0,0,0,0,0,0,0,0],"id":13,"left_children":[1,3,5,7,9,11,13,15,17,19,21,23,-1,-1,-1,25,27,29,31,33,35,37,39,41,43,45,47,49,51,53,-1,-1,55,57,59,61,63,65,67,69,71,-1,73,75,-1,-1,-1,-1,-1,-1,-1,-1,-1,-1,-1,-1,-1,-1,-1,-1,-1,-1,-1,-1,-1,-1,-1,-1,-1,-1,-1,-1,-1,-1,-1,-1,-1],"loss_changes":[9.768317E0,1.06117325E1,6.9733467E0,1.1267517E1,8.065695E0,6.7985296E0,3.259535E0,5.7606344E0,1.1801151E1,1.0521433E1,1.1935256E1,5.9303703E0,0E0,0E0,0E0,1.839602E1,5.8543034E0,3.1041565E0,5.350424E0,1.4348261E1,6.148648E0,8.799247E0,5.995537E0,2.7132263E0,5.1641355E0,5.5254307E0,5.415286E0,5.848285E0,4.0452156E0,3.0078106E0,0E0,0E0,4.0872E0,7.3321533E0,9.501488E0,2.312767E0,4.4839706E0,1.0428642E1,4.429183E0,3.7434826E0,4.3244977E0,0E0,5.786152E-1,3.4281182E0,0E0,0E0,0E0,0E0,0E0,0E0,0E0,0E0,0E0,0E0,0E0,0E0,0E0,0E0,0E0,0E0,0E0,0E0,0E0,0E0,0E0,0E0,0E0,0E0,0E0,0E0,0E0,0E0,0E0,0E0,0E0,0E0,0E0],"parents":[2147483647,0,0,1,1,2,2,3,3,4,4,5,5,6,6,7,7,8,8,9,9,10,10,11,11,15,15,16,16,17,17,18,18,19,19,20,20,21,21,22,22,23,23,24,24,25,25,26,26,27,27,28,28,29,29,32,32,33,33,34,34,35,35,36,36,37,37,38,38,39,39,40,40,42,42,43,43],"right_children":[2,4,6,8,10,12,14,16,18,20,22,24,-1,-1,-1,26,28,30,32,34,36,38,40,42,44,46,48,50,52,54,-1,-1,56,58,60,62,64,66,68,70,72,-1,74,76,-1,-1,-1,-1,-1,-1,-1,-1,-1,-1,-1,-1,-1,-1,-1,-1,-1,-1,-1,-1,-1,-1,-1,-1,-1,-1,-1,-1,-1,-1,-1,-1,-1],"split_conditions":[3.0047966E1,2.0700895E1,4.2880547E1,1.9535093E1,6.267273E0,7.307984E1,-4.3176723E1,2.3084942E1,2.5469297E1,7.3130894E0,6.444454E0,3.1766418E1,-4.3626957E-2,2.450512E-2,-5.5607956E-2,1.5417043E1,-4.1964546E1,7.005763E0,2.5434982E1,2.7367935E1,3.2327393E1,1.5158071E1,1.9459011E1,2.60936E1,3.5092316E1,1.9129953E1,-4.5419598E1,6.4213166E0,5.743442E1,5.630404E1,1.3212331E-2,-5.5482298E-2,2.8308699E1,7.084134E0,2.3828285E1,6.2173347E0,1.815757E1,2.773587E1,2.3267275E1,2.5470238E1,5.9736725E1,-1.3512872E-2,3.1189463E1,7.239724E0,4.632883E-2,5.9574433E-2,1.0951701E-2,2.175421E-2,-4.7180627E-2,3.0969206E-2,-4.6620674E-2,5.57415E-2,-1.9299773E-2,-7.112373E-2,3.1456952E-3,4.1797772E-2,-1.6261492E-2,-3.0507598E-2,2.7782971E-2,-4.9467336E-2,1.428441E-2,-5.9454646E-2,1.1394769E-2,4.1956147E-3,5.4239463E-2,5.699835E-3,4.921708E-2,-2.0169366E-2,1.9048184E-2,5.1389623E-4,-5.1615823E-2,7.731425E-3,-6.0427207E-2,3.0763496E-2,6.0010165E-2,2.37999E-2,-5.850504E-2],"split_indices":[10,22,18,8,7,25,20,9,2,21,7,10,0,0,0,8,18,0,9,3,3,15,17,2,24,22,18,7,6,13,0,0,23,21,17,7,17,9,8,9,6,0,24,0,0,0,0,0,0,0,0,0,0,0,0,0,0,0,0,0,0,0,0,0,0,0,0,0,0,0,0,0,0,0,0,0,0],"split_type":[0,0,0,0,0,0,0,0,0,0,0,0,0,0,0,0,0,0,0,0,0,0,0,0,0,0,0,0,0,0,0,0,0,0,0,0,0,0,0,0,0,0,0,0,0,0,0,0,0,0,0,0,0,0,0,0,0,0,0,0,0,0,0,0,0,0,0,0,0,0,0,0,0,0,0,0,0],"sum_hessian":[3.818887E2,3.4676733E2,3.5121376E1,9.4583466E1,2.5218385E2,3.1011942E1,4.1094327E0,6.888943E1,2.5694044E1,1.0053558E2,1.5164827E2,2.905311E1,1.9588324E0,1.1885817E0,2.9208512E0,3.88841E1,3.0005322E1,1.1572693E1,1.4121351E1,7.6283485E1,2.4252092E1,1.1315261E2,3.8495663E1,2.2713276E1,6.3398337E0,2.347617E1,1.5407933E1,8.196816E0,2.1808504E1,1.0331266E1,1.241426E0,1.4883347E0,1.2633018E1,2.0970734E1,5.5312756E1,4.21467E0,2.0037422E1,7.2216934E1,4.0935677E1,2.1934935E1,1.6560726E1,1.2304217E0,2.1482853E1,4.1544304E0,2.1854036E0,1.0945448E1,1.2530721E1,2.978837E0,1.2429096E1,5.2069845E0,2.9898317E0,2.0328533E1,1.4799721E0,8.844634E0,1.4866323E0,8.905245E0,3.7277725E0,7.699503E0,1.3271231E1,4.9139397E1,6.1733584E0,2.991041E0,1.2236295E0,1.4419055E1,5.618367E0,5.466549E1,1.7551443E1,3.2627674E1,8.308004E0,4.1952343E0,1.77397E1,1.4830812E1,1.7299143E0,5.9826684E0,1.5500185E1,1.2015985E0,2.9528317E0],"tree_param":{"num_deleted":"0","num_feature":"28","num_nodes":"77","size_leaf_vector":"1"}},{"base_weights":[-1.5164371E-2,-2.2880183E-1,1.0302635E-1,-5.2311724E-1,2.9808128E-1,-2.738063E-1,2.109097E-1,-7.1626234E-1,-2.1231571E-2,8.316008E-1,3.669536E-2,-5.455844E-1,3.4561107E-1,3.6348388E-1,-1.3782743E-1,-6.75881E-2,-9.2239255E-1,-2.4023415E-1,8.043727E-1,4.8107758E-1,6.689986E-2,4.1469678E-1,-6.388068E-1,-1.198269E0,-3.8173127E-1,5.9752345E-1,-4.9002815E-2,5.6337553E-1,-1.3754538E-1,5.160836E-2,-1.0763832E0,-3.5808325E-1,6.836942E-2,1.2101162E-1,-1.0171041E0,-4.4328067E-1,8.435725E-1,-1.2780644E-2,5.772653E-2,-2.346957E-2,6.7305946E-1,-5.8367044E-1,5.934932E-1,-1.3225356E0,-3.9507624E-2,-6.948283E-2,-6.3437233E-3,-5.449776E-1,1.8247716E-1,7.81117E-1,-3.431364E-2,-4.1272578E-1,6.4623755E-1,3.301389E-1,-4.7861716E-1,6.330787E-1,-1.7302215E-1,-7.865469E-2,1.9000003E-1,8.141111E-3,-4.825618E-2,-3.512821E-2,6.0834296E-2,-1.8531993E-2,-5.978737E-2,-3.1913634E-2,1.6956612E-2,5.395329E-2,9.513824E-3,7.5746764E-4,5.1285036E-2,-4.921784E-2,8.230355E-3,-2.2434785E-3,4.1124124E-2,-7.709312E-2,-1.3378331E-2,5.957627E-2,-5.127995E-2,4.2647988E-2,-3.410075E-2,5.3325366E-2,-1.971842E-2,6.9175854E-2,1.7226502E-2,1.4993466E-2,-6.749668E-2,6.1140794E-2,2.6171222E-2,3.3055376E-2,-2.3022521E-2,4.6714037E-3,-3.648965E-2,-1.0548706E-2,5.0180383E-2,6.1498326E-3,-3.41264E-2,-3.2463815E-2,4.3344017E-2],"categories":[],"categories_nodes":[],"categories_segments":[],"categories_sizes":[],"default_left":[0,0,0,0,0,0,0,0,0,0,0,0,0,0,0,0,0,0,0,0,0,0,0,0,0,0,0,0,0,0,0,0,0,0,0,0,0,0,0,0,0,0,0,0,0,0,0,0,0,0,0,0,0,0,0,0,0,0,0,0,0,0,0,0,0,0,0,0,0,0,0,0,0,0,0,0,0,0,0,0,0,0,0,0,0,0,0,0,0,0,0,0,0,0,0,0,0,0,0],"id":14,"left_children":[1,3,5,7,9,11,13,15,17,19,21,23,25,27,29,31,33,35,37,39,-1,41,43,45,47,49,-1,51,53,55,57,59,-1,61,63,65,67,-1,-1,-1,69,71,73,75,77,-1,-1,79,81,83,-1,85,87,89,91,93,95,-1,97,-1,-1,-1,-1,-1,-1,-1,-1,-1,-1,-1,-1,-1,-1,-1,-1,-1,-1,-1,-1,-1,-1,-1,-1,-1,-1,-1,-1,-1,-1,-1,-1,-1,-1,-1,-1,-1,-1,-1,-1],"loss_changes":[9.7564335E0,2.1494152E1,1.017475E1,8.578239E0,6.935782E0,9.586056E0,1.0374274E1,8.493065E0,4.8338737E0,2.2638292E0,9.09304E0,3.7334328E0,6.475173E0,1.3623405E1,1.0684044E1,7.371227E0,4.9135704E0,5.007379E0,2.3776474E0,2.3671346E0,0E0,4.4118476E0,5.192202E0,1.3402748E0,3.1196651E0,4.1754627E0,0E0,8.102379E0,6.4390507E0,6.730986E0,6.64268E0,4.749018E0,0E0,5.3014326E0,4.7015E0,3.021871E0,3.5878086E-1,0E0,0E0,0E0,2.2495413E0,1.3503602E0,2.9329286E0,9.6360683E-1,1.0752874E1,0E0,0E0,5.5018806E0,4.555118E0,3.1992388E0,0E0,5.8750205E0,5.710827E0,4.804348E0,3.3985586E0,4.696885E0,5.7176275E0,0E0,2.6837955E0,0E0,0E0,0E0,0E0,0E0,0E0,0E0,0E0,0E0,0E0,0E0,0E0,0E0,0E0,0E0,0E0,0E0,0E0,0E0,0E0,0E0,0E0,0E0,0E0,0E0,0E0,0E0,0E0,0E0,0E0,0E0,0E0,0E0,0E0,0E0,0E0,0E0,0E0,0E0,0E0],"parents":[2147483647,0,0,1,1,2,2,3,3,4,4,5,5,6,6,7,7,8,8,9,9,10,10,11,11,12,12,13,13,14,14,15,15,16,16,17,17,18,18,19,19,21,21,22,22,23,23,24,24,25,25,27,27,28,28,29,29,30,30,31,31,33,33,34,34,35,35,36,36,40,40,41,41,42,42,43,43,44,44,47,47,48,48,49,49,51,51,52,52,53,53,54,54,55,55,56,56,58,58],"right_children":[2,4,6,8,10,12,14,16,18,20,22,24,26,28,30,32,34,36,38,40,-1,42,44,46,48,50,-1,52,54,56,58,60,-1,62,64,66,68,-1,-1,-1,70,72,74,76,78,-1,-1,80,82,84,-1,86,88,90,92,94,96,-1,98,-1,-1,-1,-1,-1,-1,-1,-1,-1,-1,-1,-1,-1,-1,-1,-1,-1,-1,-1,-1,-1,-1,-1,-1,-1,-1,-1,-1,-1,-1,-1,-1,-1,-1,-1,-1,-1,-1,-1,-1],"split_conditions":[6.262023E0,6.000892E0,4.3792667E0,7.2908163E0,2.5093283E1,2.88413E1,6.444454E0,2.7045383E1,1.8788107E1,5.9085045E0,1.5486457E1,-4.8693924E1,2.2027117E1,2.1113663E1,7.1814637E0,2.1360785E1,2.808355E1,3.6340767E1,-7.086008E1,6.2269626E0,6.689986E-2,6.7096524E0,2.1203072E1,7.308644E0,6.3496838E1,5.12643E1,-4.9002815E-2,7.005763E0,6.3482666E0,-5.318552E1,7.2324333E0,-2.9882378E1,6.836942E-2,2.0165356E1,-3.446087E1,4.239902E0,6.0456543E0,-1.2780644E-2,5.772653E-2,-2.346957E-2,2.5259993E1,3.376866E1,2.7194054E1,2.4954342E1,2.9331804E1,-6.948283E-2,-6.3437233E-3,-4.798744E1,6.31135E0,1.8807772E1,-3.431364E-2,1.8157408E1,2.1021986E1,5.0016636E1,1.9471563E1,2.6860304E1,5.1167324E1,-7.865469E-2,2.1456892E1,8.141111E-3,-4.825618E-2,-3.512821E-2,6.0834296E-2,-1.8531993E-2,-5.978737E-2,-3.1913634E-2,1.6956612E-2,5.395329E-2,9.513824E-3,7.5746764E-4,5.1285036E-2,-4.921784E-2,8.230355E-3,-2.2434785E-3,4.1124124E-2,-7.709312E-2,-1.3378331E-2,5.957627E-2,-5.127995E-2,4.2647988E-2,-3.410075E-2,5.3325366E-2,-1.971842E-2,6.9175854E-2,1.7226502E-2,1.4993466E-2,-6.749668E-2,6.1140794E-2,2.6171222E-2,3.3055376E-2,-2.3022521E-2,4.6714037E-3,-3.648965E-2,-1.0548706E-2,5.0180383E-2,6.1498326E-3,-3.41264E-2,-3.2463815E-2,4.3344017E-2],"split_indices":[7,14,14,0,2,9,7,2,17,7,8,26,17,16,0,1,24,2,6,14,0,0,22,0,6,5,0,0,7,13,0,12,0,16,12,14,7,0,0,0,24,5,23,17,23,0,0,26,7,16,0,8,22,4,8,24,4,0,1,0,0,0,0,0,0,0,0,0,0,0,0,0,0,0,0,0,0,0,0,0,0,0,0,0,0,0,0,0,0,0,0,0,0,0,0,0,0,0,0],"split_type":[0,0,0,0,0,0,0,0,0,0,0,0,0,0,0,0,0,0,0,0,0,0,0,0,0,0,0,0,0,0,0,0,0,0,0,0,0,0,0,0,0,0,0,0,0,0,0,0,0,0,0,0,0,0,0,0,0,0,0,0,0,0,0,0,0,0,0,0,0,0,0,0,0,0,0,0,0,0,0,0,0,0,0,0,0,0,0,0,0,0,0,0,0,0,0,0,0,0,0],"sum_hessian":[3.844604E2,1.3660394E2,2.4785643E2,8.765003E1,4.8953915E1,5.482315E1,1.9303328E2,6.2984142E1,2.4665888E1,1.5380005E1,3.357391E1,3.8187183E1,1.6635965E1,1.3425415E2,5.877913E1,1.5508401E1,4.7475742E1,2.005504E1,4.6108475E0,1.0241161E1,5.138843E0,2.1775013E1,1.1798897E1,6.396119E0,3.1791063E1,1.4441046E1,2.1949203E0,9.587802E1,3.8376133E1,4.9694023E1,9.085106E0,1.3521569E1,1.9868319E0,3.9277225E0,4.354802E1,1.7388395E1,2.6666446E0,1.2119825E0,3.398865E0,1.4781451E0,8.763017E0,2.963412E0,1.88116E1,4.9475403E0,6.8513565E0,5.174689E0,1.2214304E0,2.4683346E1,7.1077175E0,1.297681E1,1.4642353E0,7.19079E0,8.868723E1,1.619765E1,2.217848E1,1.3341192E1,3.6352833E1,6.351628E0,2.7334783E0,7.670897E0,5.850672E0,2.4471092E0,1.4806132E0,1.00942545E1,3.3453766E1,1.4066888E1,3.3215086E0,1.4810467E0,1.185598E0,3.4218855E0,5.3411307E0,1.724489E0,1.2389232E0,5.17872E0,1.363288E1,3.713902E0,1.2336385E0,2.9545612E0,3.8967953E0,1.7372388E0,2.2946108E1,2.4713898E0,4.6363277E0,4.541516E0,8.435295E0,4.471203E0,2.7195878E0,1.4000678E1,7.4686554E1,1.1533218E1,4.6644335E0,6.9585757E0,1.5219905E1,4.201325E0,9.139867E0,2.3473509E1,1.2879323E1,1.2385539E0,1.4949244E0],"tree_param":{"num_deleted":"0","num_feature":"28","num_nodes":"99","size_leaf_vector":"1"}},{"base_weights":[4.81339E-2,6.5595484E-1,1.1309417E-2,-3.8675632E-2,7.975933E-1,1.0899271E-1,-2.5592795E-1,2.1887292E-1,1.1883802E0,-4.1941723E-1,1.5331474E-1,-5.2402858E-2,-7.702479E-1,-3.3169642E-1,8.1551164E-1,1.2792247E-2,1.2937272E0,4.9178164E-2,-6.7971057E-1,8.087823E-2,6.514168E-1,-3.026262E-1,2.1403039E-1,4.9143052E-1,-1.0186491E0,4.2527267E-1,-5.1128756E-2,5.6153413E-2,1.0869266E-2,5.915512E-1,7.142261E-2,-8.707637E-2,-1.2001647E0,1.451163E-1,-3.0736145E-1,2.64908E-1,1.0905585E0,-6.8859285E-1,1.1369564E-1,4.0430963E-1,-8.014758E-1,9.851682E-1,-3.022571E-2,-1.1812633E0,-2.1760537E-1,1.9858556E-3,3.0584762E-2,4.5612797E-2,3.4807927E-5,5.331835E-2,-2.9134605E-2,-7.3078714E-2,7.309978E-3,2.7598474E-2,3.713774E-3,-2.725021E-2,4.8533533E-2,-1.3651669E-2,4.2633723E-2,6.130144E-2,2.6527334E-3,-5.320842E-2,1.5590835E-3,-3.6429663E-3,5.6541722E-2,-5.826607E-2,2.6370818E-2,8.78426E-3,-6.282165E-2,6.229151E-2,1.1119067E-2,-5.5787726E-3,-6.449255E-2,3.8051967E-2,-3.4607556E-2],"categories":[],"categories_nodes":[],"categories_segments":[],"categories_sizes":[],"default_left":[0,0,0,0,0,0,0,0,0,0,0,0,0,0,0,0,0,0,0,0,0,0,0,0,0,0,0,0,0,0,0,0,0,0,0,0,0,0,0,0,0,0,0,0,0,0,0,0,0,0,0,0,0,0,0,0,0,0,0,0,0,0,0,0,0,0,0,0,0,0,0,0,0,0,0],"id":15,"left_children":[1,3,5,-1,7,9,11,13,15,17,19,21,23,25,27,-1,29,-1,31,33,35,37,39,41,43,45,-1,-1,-1,47,-1,49,51,53,55,57,59,61,63,65,67,69,-1,71,73,-1,-1,-1,-1,-1,-1,-1,-1,-1,-1,-1,-1,-1,-1,-1,-1,-1,-1,-1,-1,-1,-1,-1,-1,-1,-1,-1,-1,-1,-1],"loss_changes":[8.514069E0,5.016656E0,9.425228E0,0E0,4.322666E0,6.254869E0,1.0077862E1,3.3562202E0,8.3512306E-1,8.236329E0,8.772774E0,4.7534337E0,9.066719E0,3.361585E0,6.383672E-1,0E0,1.4061928E-1,0E0,5.46941E0,5.398907E0,4.958106E0,5.9725695E0,7.0188437E0,3.3934426E0,2.7600555E0,2.18409E-1,0E0,0E0,0E0,6.4060974E-1,0E0,6.068176E0,3.5725021E0,5.287848E0,9.883469E0,5.849145E0,1.9238224E0,5.217187E0,3.593813E0,6.381444E0,2.8004472E0,5.0733066E-1,0E0,2.066246E0,2.9111946E0,0E0,0E0,0E0,0E0,0E0,0E0,0E0,0E0,0E0,0E0,0E0,0E0,0E0,0E0,0E0,0E0,0E0,0E0,0E0,0E0,0E0,0E0,0E0,0E0,0E0,0E0,0E0,0E0,0E0,0E0],"parents":[2147483647,0,0,1,1,2,2,4,4,5,5,6,6,7,7,8,8,9,9,10,10,11,11,12,12,13,13,14,14,16,16,18,18,19,19,20,20,21,21,22,22,23,23,24,24,25,25,29,29,31,31,32,32,33,33,34,34,35,35,36,36,37,37,38,38,39,39,40,40,41,41,43,43,44,44],"right_children":[2,4,6,-1,8,10,12,14,16,18,20,22,24,26,28,-1,30,-1,32,34,36,38,40,42,44,46,-1,-1,-1,48,-1,50,52,54,56,58,60,62,64,66,68,70,-1,72,74,-1,-1,-1,-1,-1,-1,-1,-1,-1,-1,-1,-1,-1,-1,-1,-1,-1,-1,-1,-1,-1,-1,-1,-1,-1,-1,-1,-1,-1,-1],"split_conditions":[-4.1744167E1,7.1098695E0,2.4479681E1,-3.8675632E-2,-6.410221E1,4.372938E0,4.6089787E0,2.6997221E1,-4.6916183E1,-4.4360184E1,2.9892233E1,3.5260944E1,3.044807E1,2.5156822E1,-3.884367E1,1.2792247E-2,-4.0898415E1,4.9178164E-2,2.9399183E1,5.6450928E1,2.5389095E1,7.313749E0,7.036213E1,4.0601936E1,4.3379543E1,-3.865714E1,-5.1128756E-2,5.6153413E-2,1.0869266E-2,5.9499123E1,7.142261E-2,-4.3353973E1,2.3421143E1,1.8807772E1,7.2731366E0,2.8938623E1,2.383414E1,6.246647E1,4.2932563E0,2.3929483E1,2.6850702E1,2.834542E1,-3.022571E-2,2.9180141E1,2.6157705E1,1.9858556E-3,3.0584762E-2,4.5612797E-2,3.4807927E-5,5.331835E-2,-2.9134605E-2,-7.3078714E-2,7.309978E-3,2.7598474E-2,3.713774E-3,-2.725021E-2,4.8533533E-2,-1.3651669E-2,4.2633723E-2,6.130144E-2,2.6527334E-3,-5.320842E-2,1.5590835E-3,-3.6429663E-3,5.6541722E-2,-5.826607E-2,2.6370818E-2,8.78426E-3,-6.282165E-2,6.229151E-2,1.1119067E-2,-5.5787726E-3,-6.449255E-2,3.8051967E-2,-3.4607556E-2],"split_indices":[12,21,22,0,25,14,14,22,5,5,3,12,24,1,20,0,18,0,2,4,19,21,25,20,20,20,0,0,0,13,0,26,1,16,21,2,22,4,14,1,9,3,0,2,22,0,0,0,0,0,0,0,0,0,0,0,0,0,0,0,0,0,0,0,0,0,0,0,0,0,0,0,0,0,0],"split_type":[0,0,0,0,0,0,0,0,0,0,0,0,0,0,0,0,0,0,0,0,0,0,0,0,0,0,0,0,0,0,0,0,0,0,0,0,0,0,0,0,0,0,0,0,0,0,0,0,0,0,0,0,0,0,0,0,0,0,0,0,0,0,0,0,0,0,0,0,0,0,0,0,0,0,0],"sum_hessian":[3.797177E2,2.0730433E1,3.589873E2,1.4667075E0,1.9263725E1,2.633259E2,9.5661385E1,8.393616E0,1.087011E1,1.9723087E1,2.4360281E2,6.932873E1,2.633266E1,4.5962877E0,3.7973278E0,1.4513439E0,9.418765E0,2.6517086E0,1.7071379E1,2.136894E2,2.9913418E1,3.5681892E1,3.364683E1,4.1706653E0,2.2161995E1,2.3766885E0,2.2195992E0,1.928202E0,1.8691257E0,2.3840568E0,7.0347085E0,8.527985E0,8.543393E0,1.8388933E2,2.9800077E1,1.676288E1,1.31505375E1,1.8176603E1,1.750529E1,2.8844074E1,4.802759E0,2.9449875E0,1.2256776E0,1.8027672E1,4.1343236E0,1.1699889E0,1.2066996E0,1.192715E0,1.1913419E0,2.216932E0,6.311053E0,7.0826564E0,1.460737E0,2.6263136E1,1.5762619E2,2.5611353E1,4.188725E0,9.031999E0,7.7308807E0,1.147102E1,1.6795179E0,1.1629764E1,6.546839E0,1.5576711E1,1.9285796E0,1.4820281E0,2.7362045E1,1.7207526E0,3.0820067E0,1.7229533E0,1.2220342E0,1.8482504E0,1.617942E1,1.1529337E0,2.98139E0],"tree_param":{"num_deleted":"0","num_feature":"28","num_nodes":"75","size_leaf_vector":"1"}},{"base_weights":[2.188183E-3,-1.6984254E-2,8.3163893E-1,-3.005496E-1,5.1638074E-2,1.0606558E0,-1.602463E-2,1.3083611E-1,-6.0153425E-1,1.4682503E-1,-2.6223758E-1,6.794678E-2,3.8855895E-1,-2.7771132E-2,6.62735E-2,-8.58649E-1,4.0466243E-1,-6.2224305E-1,1.9758278E-1,4.1392386E-1,-3.8981032E-1,-3.09965E-2,5.6896854E-2,2.6373574E-1,-8.2270336E-1,-2.0473007E-2,-1.1088444E0,7.5927156E-1,-3.4136298E-1,6.45042E-1,-9.1929406E-1,3.7688375E-1,1.9485058E-2,6.364565E-2,-8.7005876E-2,-6.4184936E-3,-6.7416847E-1,-1.789598E-2,3.211659E-2,-6.683198E-2,5.384214E-2,3.7993684E-2,-4.4918764E-2,-6.0117047E-2,-7.7858903E-3,-3.7625195E-3,5.021556E-2,-5.00496E-2,2.9043779E-2,-3.9342344E-3,5.3295415E-2,-5.5367537E-2,-1.6222533E-3,-1.06904125E-2,3.0756894E-2,1.0609421E-2,-1.3657575E-2,2.1558957E-2,-3.2127053E-2,-4.8093896E-2,8.165073E-3,-7.505264E-2,-1.7865574E-2],"categories":[],"categories_nodes":[],"categories_segments":[],"categories_sizes":[],"default_left":[0,0,0,0,0,0,0,0,0,0,0,0,0,0,0,0,0,0,0,0,0,0,0,0,0,0,0,0,0,0,0,0,0,0,0,0,0,0,0,0,0,0,0,0,0,0,0,0,0,0,0,0,0,0,0,0,0,0,0,0,0,0,0],"id":16,"left_children":[1,3,5,7,9,11,-1,13,15,17,19,-1,21,23,-1,25,27,29,31,33,35,-1,-1,37,39,41,43,45,47,49,51,53,55,-1,57,59,61,-1,-1,-1,-1,-1,-1,-1,-1,-1,-1,-1,-1,-1,-1,-1,-1,-1,-1,-1,-1,-1,-1,-1,-1,-1,-1],"loss_changes":[6.1851697E0,7.415078E0,2.6584644E0,9.718038E0,9.211474E0,9.879627E-1,0E0,5.973511E0,1.1706789E1,9.344202E0,6.3550124E0,0E0,3.5204892E0,6.8534737E0,0E0,7.3782806E0,2.803078E0,6.1893673E0,7.0932083E0,5.223428E0,6.63727E0,0E0,0E0,5.3399835E0,9.178087E0,6.9385085E0,2.2331276E0,1.4718425E0,2.8858223E0,1.1227146E0,2.0414019E0,1.5717874E1,6.4081216E0,0E0,2.7070057E0,4.527683E0,8.625474E0,0E0,0E0,0E0,0E0,0E0,0E0,0E0,0E0,0E0,0E0,0E0,0E0,0E0,0E0,0E0,0E0,0E0,0E0,0E0,0E0,0E0,0E0,0E0,0E0,0E0,0E0],"parents":[2147483647,0,0,1,1,2,2,3,3,4,4,5,5,7,7,8,8,9,9,10,10,12,12,13,13,15,15,16,16,17,17,18,18,19,19,20,20,23,23,24,24,25,25,26,26,27,27,28,28,29,29,30,30,31,31,32,32,34,34,35,35,36,36],"right_children":[2,4,6,8,10,12,-1,14,16,18,20,-1,22,24,-1,26,28,30,32,34,36,-1,-1,38,40,42,44,46,48,50,52,54,56,-1,58,60,62,-1,-1,-1,-1,-1,-1,-1,-1,-1,-1,-1,-1,-1,-1,-1,-1,-1,-1,-1,-1,-1,-1,-1,-1,-1,-1],"split_conditions":[2.6764631E1,6.0936E0,2.7182503E1,2.677389E1,6.444454E0,5.4681786E1,-1.602463E-2,5.7869247E1,3.4583794E1,1.5652899E1,1.8717455E1,6.794678E-2,2.8498468E1,5.222097E1,6.62735E-2,-3.0435234E1,3.8074566E1,1.0176532E1,1.9399975E1,-5.0272984E1,-5.2444088E1,-3.09965E-2,5.6896854E-2,2.2824728E1,2.054411E1,2.0095741E1,6.064613E0,6.875251E0,-7.096221E1,6.324649E1,1.3254621E1,-6.2913914E1,6.347627E0,6.364565E-2,1.7263369E1,6.4657755E0,-5.4953186E1,-1.789598E-2,3.211659E-2,-6.683198E-2,5.384214E-2,3.7993684E-2,-4.4918764E-2,-6.0117047E-2,-7.7858903E-3,-3.7625195E-3,5.021556E-2,-5.00496E-2,2.9043779E-2,-3.9342344E-3,5.3295415E-2,-5.5367537E-2,-1.6222533E-3,-1.06904125E-2,3.0756894E-2,1.0609421E-2,-1.3657575E-2,2.1558957E-2,-3.2127053E-2,-4.8093896E-2,8.165073E-3,-7.505264E-2,-1.7865574E-2],"split_indices":[17,7,16,2,7,25,0,27,23,16,8,0,24,25,0,19,11,15,16,11,27,0,0,17,1,10,7,17,27,25,15,27,7,0,8,7,11,0,0,0,0,0,0,0,0,0,0,0,0,0,0,0,0,0,0,0,0,0,0,0,0,0,0],"split_type":[0,0,0,0,0,0,0,0,0,0,0,0,0,0,0,0,0,0,0,0,0,0,0,0,0,0,0,0,0,0,0,0,0,0,0,0,0,0,0,0,0,0,0,0,0,0,0,0,0,0,0,0,0,0,0,0,0,0,0,0,0,0,0],"sum_hessian":[3.8705276E2,3.7926572E2,7.7870584E0,7.323984E1,3.0602588E2,6.562069E0,1.2249892E0,3.0331942E1,4.2907898E1,2.3522346E2,7.080242E1,3.8371775E0,2.7248917E0,2.7639145E1,2.6927965E0,3.4291885E1,8.616011E0,1.3866272E1,2.213572E2,1.0881843E1,5.9920578E1,1.2352598E0,1.4896319E0,2.0712109E1,6.9270377E0,8.131728E0,2.6160158E1,5.828017E0,2.787994E0,2.4106069E0,1.1455665E1,1.0974978E2,1.1160741E2,3.4406865E0,7.441156E0,2.5952349E1,3.3968227E1,7.860223E0,1.2851886E1,5.6852016E0,1.2418362E0,4.3762374E0,3.7554908E0,2.3585115E1,2.5750432E0,1.4801235E0,4.3478937E0,1.5756326E0,1.2123613E0,1.1853337E0,1.225273E0,9.24634E0,2.2093248E0,3.1573568E1,7.817621E1,6.745964E1,4.414777E1,3.965819E0,3.4753368E0,3.2105756E0,2.2741774E1,8.375036E0,2.5593193E1],"tree_param":{"num_deleted":"0","num_feature":"28","num_nodes":"63","size_leaf_vector":"1"}},{"base_weights":[1.6645033E-2,1.198231E-1,-1.9145003E-1,8.148573E-2,9.954101E-1,-8.2509E-2,-8.179595E-1,-3.9318916E-1,1.3869478E-1,4.7765568E-1,6.831917E-2,-3.4601226E-1,1.3396357E-1,1.4317764E-1,-1.1800212E0,-5.717592E-1,7.186039E-1,9.2172086E-2,7.9312664E-1,5.500117E-2,-2.1285772E-2,-4.56254E-1,9.100545E-1,-3.3444184E-1,3.3530876E-1,-3.0144557E-1,5.191783E-2,-7.2082737E-3,-1.3512224E0,-2.0931189E-1,-9.621435E-1,-9.091581E-3,5.786247E-2,-7.924446E-1,1.3484031E-1,9.769988E-1,-2.5137946E-2,3.8106978E-2,-5.193754E-1,6.0566226E-3,5.8682065E-2,4.229088E-1,-6.3981235E-1,-4.934546E-2,4.6146658E-1,2.9738178E-2,-7.614956E-1,-1.91527E-2,-7.09416E-2,-5.8705892E-2,8.373959E-3,-6.2586896E-2,1.39263645E-2,-6.087179E-2,-8.92858E-3,-2.3683107E-3,1.6331457E-2,6.36037E-2,-1.2066673E-2,1.9293908E-2,-3.037743E-2,-1.3735853E-2,4.121934E-2,-4.9695494E-3,-5.5603564E-2,1.3825831E-2,4.896492E-2,-2.5265156E-3,-5.3666163E-2],"categories":[],"categories_nodes":[],"categories_segments":[],"categories_sizes":[],"default_left":[0,0,0,0,0,0,0,0,0,0,0,0,0,0,0,0,0,0,0,0,0,0,0,0,0,0,0,0,0,0,0,0,0,0,0,0,0,0,0,0,0,0,0,0,0,0,0,0,0,0,0,0,0,0,0,0,0,0,0,0,0,0,0,0,0,0,0,0,0],"id":17,"left_children":[1,3,5,7,9,11,13,15,17,19,-1,21,23,25,27,29,31,33,35,-1,-1,37,39,41,43,45,-1,-1,47,49,51,-1,-1,53,55,57,-1,-1,59,-1,-1,61,63,-1,65,-1,67,-1,-1,-1,-1,-1,-1,-1,-1,-1,-1,-1,-1,-1,-1,-1,-1,-1,-1,-1,-1,-1,-1],"loss_changes":[8.303811E0,8.594564E0,8.684313E0,6.8081727E0,1.4125948E0,6.3405585E0,6.7396507E0,5.7734056E0,6.7068944E0,3.8561506E0,0E0,7.345056E0,5.893362E0,2.7243361E0,2.256647E0,3.1703725E0,1.8618255E0,7.9971204E0,3.9816084E0,0E0,0E0,3.985345E0,7.669656E-1,4.648321E0,7.6899786E0,2.4413753E0,0E0,0E0,2.2520447E-1,5.1533985E0,4.370802E0,0E0,0E0,2.3300066E0,7.014186E0,5.0409164E0,0E0,0E0,3.8238516E0,0E0,0E0,1.9185097E0,3.433869E0,0E0,3.5863867E0,0E0,7.4952126E-1,0E0,0E0,0E0,0E0,0E0,0E0,0E0,0E0,0E0,0E0,0E0,0E0,0E0,0E0,0E0,0E0,0E0,0E0,0E0,0E0,0E0,0E0],"parents":[2147483647,0,0,1,1,2,2,3,3,4,4,5,5,6,6,7,7,8,8,9,9,11,11,12,12,13,13,14,14,15,15,16,16,17,17,18,18,21,21,22,22,23,23,24,24,25,25,28,28,29,29,30,30,33,33,34,34,35,35,38,38,41,41,42,42,44,44,46,46],"right_children":[2,4,6,8,10,12,14,16,18,20,-1,22,24,26,28,30,32,34,36,-1,-1,38,40,42,44,46,-1,-1,48,50,52,-1,-1,54,56,58,-1,-1,60,-1,-1,62,64,-1,66,-1,68,-1,-1,-1,-1,-1,-1,-1,-1,-1,-1,-1,-1,-1,-1,-1,-1,-1,-1,-1,-1,-1,-1],"split_conditions":[3.096662E1,3.223599E1,4.995196E0,1.708754E1,6.3204966E0,-6.107256E1,2.2970459E1,3.4776722E1,7.242484E0,4.2222168E1,6.831917E-2,2.5061575E1,-4.6680817E1,5.9098976E1,2.0204582E1,1.6249727E1,2.7643589E1,4.6894565E0,3.1958744E1,5.500117E-2,-2.1285772E-2,5.366656E0,-3.8652164E1,-3.9274788E1,6.121585E0,7.089464E0,5.191783E-2,-7.2082737E-3,-6.7657326E1,1.5377664E1,6.0733078E1,-9.091581E-3,5.786247E-2,3.5260944E1,7.005763E0,4.832805E0,-2.5137946E-2,3.8106978E-2,7.2674446E0,6.0566226E-3,5.8682065E-2,-4.308026E1,3.3868137E1,-4.934546E-2,5.6377205E1,2.9738178E-2,2.074038E1,-1.91527E-2,-7.09416E-2,-5.8705892E-2,8.373959E-3,-6.2586896E-2,1.39263645E-2,-6.087179E-2,-8.92858E-3,-2.3683107E-3,1.6331457E-2,6.36037E-2,-1.2066673E-2,1.9293908E-2,-3.037743E-2,-1.3735853E-2,4.121934E-2,-4.9695494E-3,-5.5603564E-2,1.3825831E-2,4.896492E-2,-2.5265156E-3,-5.3666163E-2],"split_indices":[23,3,14,17,7,4,22,20,0,11,0,8,5,27,10,17,2,14,3,0,0,7,18,20,7,21,0,0,6,16,27,0,0,12,0,14,0,0,21,0,0,20,12,0,11,0,16,0,0,0,0,0,0,0,0,0,0,0,0,0,0,0,0,0,0,0,0,0,0],"split_type":[0,0,0,0,0,0,0,0,0,0,0,0,0,0,0,0,0,0,0,0,0,0,0,0,0,0,0,0,0,0,0,0,0,0,0,0,0,0,0,0,0,0,0,0,0,0,0,0,0,0,0,0,0,0,0,0,0,0,0,0,0,0,0,0,0,0,0,0,0],"sum_hessian":[3.8467975E2,2.574531E2,1.27226654E2,2.4770064E2,9.752449E0,1.0934485E2,1.7881807E1,2.6010818E1,2.2168982E2,5.0257545E0,4.726695E0,4.904543E1,6.0299416E1,5.0583496E0,1.2823459E1,2.2829762E1,3.1810575E0,2.0804128E2,1.3648535E1,2.8467972E0,2.1789572E0,4.5673542E1,3.371889E0,1.7928915E1,4.2370502E1,3.8228488E0,1.2355007E0,2.0800657E0,1.0743393E1,1.2635064E1,1.0194697E1,1.2338092E0,1.9472482E0,8.764269E0,1.9927701E2,1.216809E1,1.4804444E0,1.7042015E0,4.3969337E1,1.2099706E0,2.1619186E0,5.0412316E0,1.2887683E1,3.096309E0,3.9274193E1,1.1974024E0,2.6254463E0,1.1363629E0,9.60703E0,2.9542794E0,9.680784E0,8.258173E0,1.9365237E0,4.5978913E0,4.1663775E0,1.0257755E2,9.669946E1,9.760118E0,2.4079726E0,3.6028948E0,4.0366444E1,1.9567798E0,3.0844517E0,6.5746055E0,6.3130774E0,3.006876E1,9.205435E0,1.1547253E0,1.470721E0],"tree_param":{"num_deleted":"0","num_feature":"28","num_nodes":"69","size_leaf_vector":"1"}},{"base_weights":[-1.651257E-2,-2.332071E-1,1.0165957E-1,3.8232315E-1,-4.1881138E-1,2.621847E-1,-1.0588919E-1,6.420779E-1,-1.1024744E-1,-5.604855E-1,2.812244E-1,3.509255E-1,-5.8010405E-1,-2.838735E-1,2.4955331E-1,-3.9053492E-2,7.716988E-1,-1.0451713E0,5.058767E-1,-9.6284544E-1,-3.3282644E-1,7.860138E-1,-1.0555013E-1,-4.5786947E-1,4.172278E-1,-8.667717E-1,3.9255843E-2,5.8650892E-2,-4.3236047E-1,4.6115425E-1,-2.7972162E-1,-1.7836358E-1,1.0062424E0,-6.985222E-2,-6.2301657E-3,-2.5489986E-2,8.24867E-1,-3.010613E-1,-1.2836106E0,6.8356924E-2,-6.1273676E-1,6.532609E-2,1.1243278E-1,4.974832E-2,-3.74778E-1,-6.614774E-2,7.868757E-2,6.184292E-1,1.02185205E-1,-1.1179384E0,-1.44194E-1,6.59534E-1,-6.3987505E-1,-9.572476E-1,-2.5690588E-1,5.7382005E-1,-2.6624272E-2,-5.8161473E-1,3.1794272E-2,2.8959766E-2,-4.6867877E-2,5.6427445E-2,-5.9318985E-3,5.673913E-2,-1.2335362E-2,2.6981179E-2,-4.7580104E-2,1.0886739E-2,-6.943439E-2,-4.044968E-2,3.0856675E-2,-4.0866215E-2,2.1185275E-2,-2.265584E-2,4.0129125E-2,-3.7587542E-2,1.612582E-2,-2.1010755E-2,4.0531155E-2,5.966438E-2,2.3221558E-2,-3.17464E-2,1.5147897E-2,-7.3184416E-2,1.6081475E-3,2.3387901E-2,-3.7756152E-2,7.328037E-2,-1.4425296E-3,-4.6018958E-2,3.5028696E-2,1.567403E-2,-6.115014E-2,6.520461E-3,-2.7364722E-2,4.89639E-3,4.274318E-2,-5.258096E-2,4.0060125E-4],"categories":[],"categories_nodes":[],"categories_segments":[],"categories_sizes":[],"default_left":[0,0,0,0,0,0,0,0,0,0,0,0,0,0,0,0,0,0,0,0,0,0,0,0,0,0,0,0,0,0,0,0,0,0,0,0,0,0,0,0,0,0,0,0,0,0,0,0,0,0,0,0,0,0,0,0,0,0,0,0,0,0,0,0,0,0,0,0,0,0,0,0,0,0,0,0,0,0,0,0,0,0,0,0,0,0,0,0,0,0,0,0,0,0,0,0,0,0,0],"id":18,"left_children":[1,3,5,7,9,11,13,15,17,19,21,23,25,27,29,-1,31,33,35,37,39,41,43,45,47,49,-1,51,53,55,57,59,61,-1,-1,-1,63,65,67,69,71,-1,73,-1,75,-1,77,79,81,83,85,87,89,91,93,95,-1,97,-1,-1,-1,-1,-1,-1,-1,-1,-1,-1,-1,-1,-1,-1,-1,-1,-1,-1,-1,-1,-1,-1,-1,-1,-1,-1,-1,-1,-1,-1,-1,-1,-1,-1,-1,-1,-1,-1,-1,-1,-1],"loss_changes":[9.652763E0,1.5354874E1,8.157959E0,4.0801673E0,1.0339651E1,1.0510146E1,6.8487234E0,4.4144926E0,7.2526298E0,7.5314846E0,3.5867746E0,6.9139624E0,5.9716806E0,3.680078E0,4.192177E0,0E0,4.5116177E0,1.4335437E0,2.9184492E0,6.07666E0,6.3610296E0,2.6241884E0,3.6446621E0,4.7343864E0,7.314663E0,1.9529209E0,0E0,9.912637E0,4.3814926E0,3.2493296E0,3.406084E0,3.2445757E0,2.2997675E0,0E0,0E0,0E0,2.3552895E0,6.6639695E0,3.4891396E0,1.2067075E1,7.395994E0,0E0,2.1354647E0,0E0,2.7655034E0,0E0,2.9335444E0,5.7163944E0,7.0830793E0,3.425517E0,1.9057685E0,7.0602584E0,4.7671146E0,4.510565E0,4.4606323E0,3.1394463E0,0E0,2.4424167E0,0E0,0E0,0E0,0E0,0E0,0E0,0E0,0E0,0E0,0E0,0E0,0E0,0E0,0E0,0E0,0E0,0E0,0E0,0E0,0E0,0E0,0E0,0E0,0E0,0E0,0E0,0E0,0E0,0E0,0E0,0E0,0E0,0E0,0E0,0E0,0E0,0E0,0E0,0E0,0E0,0E0],"parents":[2147483647,0,0,1,1,2,2,3,3,4,4,5,5,6,6,7,7,8,8,9,9,10,10,11,11,12,12,13,13,14,14,16,16,17,17,18,18,19,19,20,20,21,21,22,22,23,23,24,24,25,25,27,27,28,28,29,29,30,30,31,31,32,32,36,36,37,37,38,38,39,39,40,40,42,42,44,44,46,46,47,47,48,48,49,49,50,50,51,51,52,52,53,53,54,54,55,55,57,57],"right_children":[2,4,6,8,10,12,14,16,18,20,22,24,26,28,30,-1,32,34,36,38,40,42,44,46,48,50,-1,52,54,56,58,60,62,-1,-1,-1,64,66,68,70,72,-1,74,-1,76,-1,78,80,82,84,86,88,90,92,94,96,-1,98,-1,-1,-1,-1,-1,-1,-1,-1,-1,-1,-1,-1,-1,-1,-1,-1,-1,-1,-1,-1,-1,-1,-1,-1,-1,-1,-1,-1,-1,-1,-1,-1,-1,-1,-1,-1,-1,-1,-1,-1,-1],"split_conditions":[6.262023E0,1.9308418E1,1.5158071E1,2.6612436E1,2.77119E1,2.6734034E1,5.3950283E1,1.8184626E1,6.978683E0,1.4321491E1,6.2759705E1,1.6091694E1,4.2184185E1,6.353112E0,2.0552748E1,-3.9053492E-2,6.01038E0,1.6698496E1,-3.9011444E1,-3.2869537E1,-2.8622908E1,2.9661137E1,-7.462485E1,6.3287034E0,6.4055953E0,2.7746578E1,3.9255843E-2,-3.6851795E1,6.37835E0,3.1255577E1,4.0893665E1,1.4633242E1,7.0801554E0,-6.985222E-2,-6.2301657E-3,-2.5489986E-2,